{"learner":{"attributes":{"best_iteration":"50","best_score":"0.9630492439412953","scikit_learn":"{\"_estimator_type\": \"classifier\"}"},"feature_names":["Geopolitical_Risk_Index","Weather_Severity_Norm","Inflation_Rate_Pct","Base_Lead_Time_Days","Transportation_Mode_Enc","Route_Type_Enc","Disruption_Event_Enc","Order_Weight_Kg","Congestion_Score"],"feature_types":["float","float","float","int","int","int","int","int","float"],"gradient_booster":{"model":{"cats":{"enc":[],"feature_segments":[],"sorted_idx":[]},"gbtree_model_param":{"num_parallel_tree":"1","num_trees":"76"},"iteration_indptr":[0,1,2,3,4,5,6,7,8,9,10,11,12,13,14,15,16,17,18,19,20,21,22,23,24,25,26,27,28,29,30,31,32,33,34,35,36,37,38,39,40,41,42,43,44,45,46,47,48,49,50,51,52,53,54,55,56,57,58,59,60,61,62,63,64,65,66,67,68,69,70,71,72,73,74,75,76],"tree_info":[0,0,0,0,0,0,0,0,0,0,0,0,0,0,0,0,0,0,0,0,0,0,0,0,0,0,0,0,0,0,0,0,0,0,0,0,0,0,0,0,0,0,0,0,0,0,0,0,0,0,0,0,0,0,0,0,0,0,0,0,0,0,0,0,0,0,0,0,0,0,0,0,0,0,0,0],"trees":[{"base_weights":[2.1495031E-2,-1.8170073E0,7.890046E-2,-1.9004406E0,-1.7435982E0,-1.7677037E0,-7.818602E-2,-6.7634857E-1,-1.7719554E0,-7.512172E-2,-1.1998328E0,-6.6086955E-2,-1.5518074E-1,-1.4080285E0,-1.8026464E0,-1.5820067E0,-3.1496078E-2,1.0429252E0,-6.6086955E-2,-1.5933512E0,-6.9451696E-1,-1.8126166E0,-1.0474584E0,-7.492063E-2,-2.3426244E-2,4.0982984E-2,-5.8666665E-2,1.49238035E-2,5.4059487E-2,-6.953054E-2,-1.8453151E-2,-4.477379E-2,3.915567E-2,-7.036852E-2,-7.930586E-2,2.182638E-2,-6.814815E-2],"categories":[],"categories_nodes":[],"categories_segments":[],"categories_sizes":[],"default_left":[0,0,0,0,0,0,0,0,0,0,0,0,0,0,0,0,0,0,0,0,0,0,0,0,0,0,0,0,0,0,0,0,0,0,0,0,0],"id":0,"left_children":[1,3,-1,5,7,9,-1,11,13,-1,15,-1,17,19,21,23,25,27,-1,29,31,33,35,-1,-1,-1,-1,-1,-1,-1,-1,-1,-1,-1,-1,-1,-1],"loss_changes":[7.5309893E3,3.3068848E0,0E0,1.0534668E-1,1.65708E1,7.3923035E0,0E0,8.294666E0,3.8432617E0,0E0,1.2369316E1,0E0,2.3360477E1,5.3729095E0,2.041626E0,4.9739685E0,1.3439856E1,1.0074449E0,0E0,5.452423E0,9.538469E0,1.1895752E0,1.053546E1,0E0,0E0,0E0,0E0,0E0,0E0,0E0,0E0,0E0,0E0,0E0,0E0,0E0,0E0],"parents":[2147483647,0,0,1,1,3,3,4,4,5,5,7,7,8,8,10,10,12,12,13,13,14,14,15,15,16,16,17,17,19,19,20,20,21,21,22,22],"right_children":[2,4,-1,6,8,10,-1,12,14,-1,16,-1,18,20,22,24,26,28,-1,30,32,34,36,-1,-1,-1,-1,-1,-1,-1,-1,-1,-1,-1,-1,-1,-1],"split_conditions":[1E0,3.39E0,7.890046E-2,3.4E-1,3.43E0,3E-1,-7.818602E-2,2E0,7.84E2,-7.512172E-2,4E0,-6.6086955E-2,3E0,7.8E-1,6.46E0,7.138E3,2.715E3,6E-1,-6.6086955E-2,5.68E0,7.5E2,4.92E0,1.7E-1,-7.492063E-2,-2.3426244E-2,4.0982984E-2,-5.8666665E-2,1.49238035E-2,5.4059487E-2,-6.953054E-2,-1.8453151E-2,-4.477379E-2,3.915567E-2,-7.036852E-2,-7.930586E-2,2.182638E-2,-6.814815E-2],"split_indices":[6,2,0,0,2,0,0,5,7,0,5,0,5,0,2,7,7,0,0,2,7,2,0,0,0,0,0,0,0,0,0,0,0,0,0,0,0],"split_type":[0,0,0,0,0,0,0,0,0,0,0,0,0,0,0,0,0,0,0,0,0,0,0,0,0,0,0,0,0,0,0,0,0,0,0,0,0],"sum_hessian":[2.0975542E3,1.0799515E3,1.0176027E3,4.938159E2,5.861357E2,1.5293993E2,3.4087598E2,1.5813953E1,5.703217E2,1.2612597E2,2.6813953E1,4.75E0,1.1063953E1,4.8001938E1,5.2231976E2,1.9937984E1,6.875969E0,6.3139534E0,4.75E0,3.712597E1,1.0875969E1,5.141318E2,8.187984E0,1.475E1,5.1879845E0,4.125969E0,2.75E0,2.6879845E0,3.625969E0,3.2437984E1,4.6879845E0,8.937984E0,1.9379845E0,3.9988177E2,1.1425E2,2.4379845E0,5.75E0],"tree_param":{"num_deleted":"0","num_feature":"9","num_nodes":"37","size_leaf_vector":"1"}},{"base_weights":[-5.2859713E-3,-1.7477269E0,7.5718954E-2,-1.7647496E0,-1.5485936E0,-1.8312194E0,-1.7101108E0,-1.3569224E0,-7.480469E-2,-1.436082E0,-1.8569663E0,-1.5770581E0,-1.7767805E0,-6.273484E-1,-1.4993048E0,-1.6201838E0,1.2333768E-1,-7.6115035E-2,-1.6043292E0,-1.635923E0,3.2085836E-2,-7.5165786E-2,-1.6736137E0,-6.366899E-2,2.3893584E-1,-5.046294E-1,-1.5943837E0,-7.397129E-2,-1.082514E-2,-4.2844933E-2,3.9822344E-2,1.0791924E-2,-6.770798E-2,-6.057898E-2,-7.584838E-2,1.705745E-2,-1.017875E-2,-2.1125026E-2,-6.933205E-2,3.7730183E-2,-4.899074E-2,-5.9380155E-2,4.9266353E-2,-7.377154E-2,-5.14953E-2],"categories":[],"categories_nodes":[],"categories_segments":[],"categories_sizes":[],"default_left":[0,0,0,0,0,0,0,0,0,0,0,0,0,0,0,0,0,0,0,0,0,0,0,0,0,0,0,0,0,0,0,0,0,0,0,0,0,0,0,0,0,0,0,0,0],"id":1,"left_children":[1,3,-1,5,7,9,11,13,-1,15,17,19,21,23,25,27,29,-1,31,33,35,-1,37,-1,39,41,43,-1,-1,-1,-1,-1,-1,-1,-1,-1,-1,-1,-1,-1,-1,-1,-1,-1,-1],"loss_changes":[6.859078E3,9.3237305E-1,0E0,4.6020508E-1,3.2130737E0,1.7285156E0,2.1467285E0,5.5109787E0,0E0,9.0541115E0,1.6121826E0,1.8535156E1,6.965332E-1,1.0289243E1,4.0418854E0,8.050072E0,5.4273276E0,0E0,1.1755539E1,3.0793762E0,9.974907E-1,0E0,1.2096497E1,0E0,8.493037E0,1.192447E1,1.1787872E0,0E0,0E0,0E0,0E0,0E0,0E0,0E0,0E0,0E0,0E0,0E0,0E0,0E0,0E0,0E0,0E0,0E0,0E0],"parents":[2147483647,0,0,1,1,3,3,4,4,5,5,6,6,7,7,9,9,10,10,11,11,12,12,13,13,14,14,15,15,16,16,18,18,19,19,20,20,22,22,24,24,25,25,26,26],"right_children":[2,4,-1,6,8,10,12,14,-1,16,18,20,22,24,26,28,30,-1,32,34,36,-1,38,-1,40,42,44,-1,-1,-1,-1,-1,-1,-1,-1,-1,-1,-1,-1,-1,-1,-1,-1,-1,-1],"split_conditions":[1E0,8.4E-1,7.5718954E-2,1.8E1,8.8E-1,7.12E2,3.517E3,7E0,-7.480469E-2,6.83E2,8.313E3,3.454E3,6.566E3,3E0,7.84E2,7.9E-1,2E0,-7.6115035E-2,8.35E3,6.3E-1,2.4E1,-7.5165786E-2,6.675E3,-6.366899E-2,8.6E-1,6.83E2,2.4E1,-7.397129E-2,-1.082514E-2,-4.2844933E-2,3.9822344E-2,1.0791924E-2,-6.770798E-2,-6.057898E-2,-7.584838E-2,1.705745E-2,-1.017875E-2,-2.1125026E-2,-6.933205E-2,3.7730183E-2,-4.899074E-2,-5.9380155E-2,4.9266353E-2,-7.377154E-2,-5.14953E-2],"split_indices":[6,0,0,3,0,7,7,3,0,7,7,7,7,3,7,0,5,0,7,0,3,0,7,0,0,7,3,0,0,0,0,0,0,0,0,0,0,0,0,0,0,0,0,0,0],"split_type":[0,0,0,0,0,0,0,0,0,0,0,0,0,0,0,0,0,0,0,0,0,0,0,0,0,0,0,0,0,0,0,0,0,0,0,0,0,0,0,0,0,0,0,0,0],"sum_hessian":[2.071729E3,1.08024E3,9.91489E2,9.879255E2,9.2314476E1,4.3103925E2,5.568862E2,6.110686E1,3.1207613E1,2.9841288E1,4.0119797E2,1.9412532E2,3.6276093E2,1.086095E1,5.024591E1,2.6655437E1,3.1858506E0,3.3397522E2,6.722275E1,1.8725847E2,6.8668394E0,1.7344792E2,1.89313E2,4.743222E0,6.117728E0,4.9341707E0,4.531174E1,2.2470577E1,4.1848607E0,1.2483116E0,1.937539E0,2.9345574E0,6.428819E1,1.3233159E2,5.4926884E1,2.6844313E0,4.182408E0,9.863642E0,1.7944936E2,4.370339E0,1.7473897E0,3.246833E0,1.6873376E0,2.2218243E1,2.3093498E1],"tree_param":{"num_deleted":"0","num_feature":"9","num_nodes":"45","size_leaf_vector":"1"}},{"base_weights":[-3.3830218E-3,-1.709571E0,7.319777E-2,-1.6236241E0,-1.746165E0,-1.7189428E0,-1.3742979E0,-1.5126165E0,-7.0547596E-2,-7.405363E-2,-1.5578783E0,-7.314065E-2,-9.727718E-1,-1.6058505E0,-3.6838164E-3,-2.303888E-1,-1.6061848E0,-6.822801E-2,-7.635259E-1,-1.1352955E0,-7.303959E-2,-4.7335293E-2,4.8077233E-2,-4.748528E-2,2.4027225E-2,-5.5975676E-2,-6.933891E-2,-3.7888377E-3,-4.42417E-2,-5.505565E-2,4.9209273E-3],"categories":[],"categories_nodes":[],"categories_segments":[],"categories_sizes":[],"default_left":[0,0,0,0,0,0,0,0,0,0,0,0,0,0,0,0,0,0,0,0,0,0,0,0,0,0,0,0,0,0,0],"id":2,"left_children":[1,3,-1,5,7,9,11,13,-1,-1,15,-1,17,19,21,23,25,-1,27,29,-1,-1,-1,-1,-1,-1,-1,-1,-1,-1,-1],"loss_changes":[6.5035454E3,5.5200195E-1,0E0,5.6190796E0,3.6938477E-1,2.211792E0,1.6071198E1,8.269241E0,0E0,0E0,6.948242E0,0E0,6.992405E0,3.6652832E0,7.7161865E0,4.827432E0,4.682312E-1,0E0,9.948154E0,6.3277073E0,0E0,0E0,0E0,0E0,0E0,0E0,0E0,0E0,0E0,0E0,0E0],"parents":[2147483647,0,0,1,1,3,3,4,4,5,5,6,6,7,7,10,10,12,12,13,13,14,14,15,15,16,16,18,18,19,19],"right_children":[2,4,-1,6,8,10,12,14,-1,-1,16,-1,18,20,22,24,26,-1,28,30,-1,-1,-1,-1,-1,-1,-1,-1,-1,-1,-1],"split_conditions":[1E0,3.4E-1,7.319777E-2,2.8E1,7.84E2,5.6E-1,2.2E-1,7.5E2,-7.0547596E-2,-7.405363E-2,5.7E-1,-7.314065E-2,2E-1,1.2E1,6.6E-1,2.2E-1,2E-1,-6.822801E-2,3.494E3,6.83E2,-7.303959E-2,-4.7335293E-2,4.8077233E-2,-4.748528E-2,2.4027225E-2,-5.5975676E-2,-6.933891E-2,-3.7888377E-3,-4.42417E-2,-5.505565E-2,4.9209273E-3],"split_indices":[6,0,0,3,7,1,0,7,0,0,1,0,1,3,0,0,0,0,7,7,0,0,0,0,0,0,0,0,0,0,0],"split_type":[0,0,0,0,0,0,0,0,0,0,0,0,0,0,0,0,0,0,0,0,0,0,0,0,0,0,0,0,0,0,0],"sum_hessian":[2.077138E3,1.0759093E3,1.0012287E3,3.3484305E2,7.410662E2,2.3797108E2,9.687196E1,5.782097E1,6.8324524E2,1.2484878E2,1.1312231E2,4.3785988E1,5.308598E1,5.4395733E1,3.4252346E0,4.1744943E0,1.08947815E2,1.020148E1,4.28845E1,1.9299536E1,3.5096195E1,1.740545E0,1.6846894E0,1.7413636E0,2.4331307E0,4.607989E1,6.2867928E1,1.495656E1,2.7927937E1,1.6117554E1,3.181982E0],"tree_param":{"num_deleted":"0","num_feature":"9","num_nodes":"31","size_leaf_vector":"1"}},{"base_weights":[1.35990335E-2,-8.70823E-1,7.077677E-2,-1.6428536E0,-4.665203E-1,-1.6546826E0,-5.1447886E-1,-8.4435815E-1,-1.8736875E-1,-1.7260026E0,-1.4657767E0,-5.8104437E-2,5.3106006E-2,-2.9888563E-2,-1.5986795E0,3.7625402E-1,-2.5364518E-1,-6.973528E-2,-9.314349E-1,-1.6137942E0,-9.731151E-1,-3.025857E-1,3.1213638E-1,-1.6768531E0,-1.1327093E0,7.413353E-1,-8.656029E-2,5.524927E-1,-3.0572325E-1,3.026955E-2,-6.2040165E-2,-7.155352E-2,-5.181759E-2,-1.362644E-2,-6.781575E-2,-5.1239148E-2,-5.7474053E-3,1.9656809E-2,-2.8995566E-2,-5.8631375E-2,-7.155325E-2,-6.925514E-2,2.0572357E-3,-1.793772E-3,3.843488E-2,-1.926253E-2,4.117474E-2,3.942075E-2,-5.955882E-3,-3.2255974E-2,-8.209508E-3],"categories":[],"categories_nodes":[],"categories_segments":[],"categories_sizes":[],"default_left":[0,0,0,0,0,0,0,0,0,0,0,0,0,0,0,0,0,0,0,0,0,0,0,0,0,0,0,0,0,0,0,0,0,0,0,0,0,0,0,0,0,0,0,0,0,0,0,0,0,0,0],"id":3,"left_children":[1,3,-1,5,7,9,11,13,15,17,19,-1,-1,21,23,25,27,-1,29,31,33,35,37,39,41,43,45,47,49,-1,-1,-1,-1,-1,-1,-1,-1,-1,-1,-1,-1,-1,-1,-1,-1,-1,-1,-1,-1,-1,-1],"loss_changes":[3.2452056E3,4.3302734E2,0E0,5.518921E0,9.6192764E1,3.8272705E0,1.2993219E1,2.382414E2,1.9768246E1,3.0286255E0,8.34375E0,0E0,0E0,1.7583626E1,5.4349365E0,9.494953E0,1.997737E1,0E0,1.0962187E1,3.4238892E0,1.4921429E1,1.6114807E1,1.5913221E1,1.4039001E0,2.2779469E1,5.446457E0,1.1739726E1,8.950911E0,2.2164562E1,0E0,0E0,0E0,0E0,0E0,0E0,0E0,0E0,0E0,0E0,0E0,0E0,0E0,0E0,0E0,0E0,0E0,0E0,0E0,0E0,0E0,0E0],"parents":[2147483647,0,0,1,1,3,3,4,4,5,5,6,6,7,7,8,8,9,9,10,10,13,13,14,14,15,15,16,16,18,18,19,19,20,20,21,21,22,22,23,23,24,24,25,25,26,26,27,27,28,28],"right_children":[2,4,-1,6,8,10,12,14,16,18,20,-1,-1,22,24,26,28,-1,30,32,34,36,38,40,42,44,46,48,50,-1,-1,-1,-1,-1,-1,-1,-1,-1,-1,-1,-1,-1,-1,-1,-1,-1,-1,-1,-1,-1,-1],"split_conditions":[4.5333335E-1,2.2166666E-1,7.077677E-2,6.46E0,2E0,2.8E1,8.6E-1,1E0,1.8E0,5.72E0,4.48E0,-5.8104437E-2,5.3106006E-2,3.6166668E-1,4.2E-1,1.2E1,5E-2,-6.973528E-2,7.12E2,1.55E-1,4.9E0,2.42E0,4.33E0,2.95E-1,6.7E-1,3E-1,4.2E-1,3.71E0,2.73E0,3.026955E-2,-6.2040165E-2,-7.155352E-2,-5.181759E-2,-1.362644E-2,-6.781575E-2,-5.1239148E-2,-5.7474053E-3,1.9656809E-2,-2.8995566E-2,-5.8631375E-2,-7.155325E-2,-6.925514E-2,2.0572357E-3,-1.793772E-3,3.843488E-2,-1.926253E-2,4.117474E-2,3.942075E-2,-5.955882E-3,-3.2255974E-2,-8.209508E-3],"split_indices":[8,8,0,2,5,3,1,5,2,2,2,0,0,8,8,3,1,0,7,8,2,2,2,8,1,8,8,2,2,0,0,0,0,0,0,0,0,0,0,0,0,0,0,0,0,0,0,0,0,0,0],"split_type":[0,0,0,0,0,0,0,0,0,0,0,0,0,0,0,0,0,0,0,0,0,0,0,0,0,0,0,0,0,0,0,0,0,0,0,0,0,0,0,0,0,0,0,0,0,0,0,0,0,0,0],"sum_hessian":[2.0877974E3,1.3887671E3,6.9903015E2,4.762628E2,9.1250433E2,4.7086023E2,5.402565E0,3.8685828E2,5.2564606E2,3.359052E2,1.3495503E2,3.7197008E0,1.6828641E0,1.8651286E2,2.0034543E2,5.4815056E1,4.70831E2,3.2754666E2,8.358544E0,1.0202618E2,3.292886E1,1.03837975E2,8.26749E1,1.6933786E2,3.1007555E1,3.0306568E1,2.450849E1,2.7987776E1,4.428432E2,2.1846142E0,6.1739306E0,6.2849846E1,3.9176334E1,1.8340704E1,1.4588154E1,1.3521429E1,9.031654E1,7.09372E1,1.1737693E1,6.3581924E1,1.0575594E2,2.028823E1,1.0719324E1,6.7892885E0,2.3517279E1,1.8521084E1,5.987405E0,1.7053896E1,1.093388E1,7.2848E1,3.699952E2],"tree_param":{"num_deleted":"0","num_feature":"9","num_nodes":"51","size_leaf_vector":"1"}},{"base_weights":[-2.5279561E-2,-1.6295211E0,6.913932E-2,-1.6902636E0,-1.5492574E0,-7.0627056E-2,-1.6245977E0,-1.34277E-1,-1.5614961E0,-1.0400288E0,-1.6401012E0,-4.9159307E-2,4.4703864E-2,-1.1906918E0,-1.5977015E0,-6.2754825E-2,2.5320861E-2,-1.4879186E0,-6.81496E-2,-7.7478236E-1,-6.818969E-2,-1.6616338E0,-1.4092909E0,-6.6282086E-2,-2.9345216E-2,-3.802995E-2,3.366563E-2,-6.720172E-2,-2.9652433E-2,-4.2119198E-2,-6.308887E-2],"categories":[],"categories_nodes":[],"categories_segments":[],"categories_sizes":[],"default_left":[0,0,0,0,0,0,0,0,0,0,0,0,0,0,0,0,0,0,0,0,0,0,0,0,0,0,0,0,0,0,0],"id":4,"left_children":[1,3,-1,5,7,-1,9,11,13,15,17,-1,-1,19,21,-1,-1,23,-1,25,-1,27,29,-1,-1,-1,-1,-1,-1,-1,-1],"loss_changes":[5.7404204E3,2.5769043E0,0E0,8.068848E-2,7.9472656E0,0E0,1.2929077E0,8.408219E0,4.3656006E0,1.0974893E1,5.697632E-1,0E0,0E0,8.397881E0,2.746704E0,0E0,0E0,1.1851395E1,0E0,8.468689E0,0E0,4.00354E0,5.1371E0,0E0,0E0,0E0,0E0,0E0,0E0,0E0,0E0],"parents":[2147483647,0,0,1,1,3,3,4,4,6,6,7,7,8,8,9,9,10,10,13,13,14,14,17,17,19,19,21,21,22,22],"right_children":[2,4,-1,6,8,-1,10,12,14,16,18,-1,-1,20,22,-1,-1,24,-1,26,-1,28,30,-1,-1,-1,-1,-1,-1,-1,-1],"split_conditions":[1E0,3.75E0,6.913932E-2,1.8E1,3.76E0,-7.0627056E-2,4E-2,9E-1,7.84E2,8.39E3,1.7E-1,-4.9159307E-2,4.4703864E-2,5.1E-1,2.8E1,-6.2754825E-2,2.5320861E-2,1.5E-1,-6.81496E-2,4.9E-1,-6.818969E-2,6.46E0,1.6E-1,-6.6282086E-2,-2.9345216E-2,-3.802995E-2,3.366563E-2,-6.720172E-2,-2.9652433E-2,-4.2119198E-2,-6.308887E-2],"split_indices":[6,2,0,3,2,0,1,1,7,7,8,0,0,1,3,0,0,8,0,1,0,2,8,0,0,0,0,0,0,0,0],"split_type":[0,0,0,0,0,0,0,0,0,0,0,0,0,0,0,0,0,0,0,0,0,0,0,0,0,0,0,0,0,0,0],"sum_hessian":[2.0383418E3,1.0645883E3,9.737535E2,5.945678E2,4.700204E2,2.6469513E2,3.298727E2,4.133203E0,4.6588718E2,1.0281647E1,3.1959106E2,2.2147722E0,1.9184307E0,4.4457222E1,4.2142996E2,7.859555E0,2.4220917E0,1.0142617E2,2.1816489E2,2.5960352E1,1.8496868E1,3.0882043E2,1.1260953E2,8.187136E1,1.9554811E1,2.3783104E1,2.1772468E0,3.0195502E2,6.8654366E0,3.8401207E1,7.420832E1],"tree_param":{"num_deleted":"0","num_feature":"9","num_nodes":"31","size_leaf_vector":"1"}},{"base_weights":[-1.3569708E-2,-1.5606495E0,6.7200035E-2,-1.6457568E0,-1.4878027E0,-6.853814E-2,-1.5439366E0,-4.1982356E-1,-1.5154651E0,-1.2956374E0,-1.652927E0,-5.7213288E-2,1.4826646E-1,-6.8135805E-2,-1.4820665E0,-1.5434693E0,-4.6267852E-1,-6.799684E-2,-1.0461127E0,1.1485686E0,-5.482878E-2,-7.054509E-1,-1.4923189E0,-6.6576205E-2,-4.4847716E-2,-6.0411226E-2,1.0265782E-2,-6.21166E-3,-6.028026E-2,2.0155562E-2,5.6467693E-2,1.8121554E-2,-5.6287162E-2,-6.114081E-2,-5.0398577E-2],"categories":[],"categories_nodes":[],"categories_segments":[],"categories_sizes":[],"default_left":[0,0,0,0,0,0,0,0,0,0,0,0,0,0,0,0,0,0,0,0,0,0,0,0,0,0,0,0,0,0,0,0,0,0,0],"id":5,"left_children":[1,3,-1,5,7,-1,9,11,13,15,17,-1,19,-1,21,23,25,-1,27,29,-1,31,33,-1,-1,-1,-1,-1,-1,-1,-1,-1,-1,-1,-1],"loss_changes":[5.3086943E3,4.116211E0,0E0,6.5563965E-1,1.6526611E1,0E0,3.3077698E0,9.426169E0,1.0273438E0,1.2921265E1,2.1088257E0,0E0,1.8562757E1,0E0,2.8343506E0,7.1170807E-1,1.2877375E1,0E0,4.856183E0,5.2448654E-1,0E0,7.3503227E0,2.119629E0,0E0,0E0,0E0,0E0,0E0,0E0,0E0,0E0,0E0,0E0,0E0,0E0],"parents":[2147483647,0,0,1,1,3,3,4,4,6,6,7,7,8,8,9,9,10,10,12,12,14,14,15,15,16,16,18,18,19,19,21,21,22,22],"right_children":[2,4,-1,6,8,-1,10,12,14,16,18,-1,20,-1,22,24,26,-1,28,30,-1,32,34,-1,-1,-1,-1,-1,-1,-1,-1,-1,-1,-1,-1],"split_conditions":[1E0,3.39E0,6.7200035E-2,2.4E1,3.43E0,-6.853814E-2,3.4E-1,1.8E1,3.67E0,3E-1,8.6E-1,-5.7213288E-2,2.4E1,-6.8135805E-2,3.69E0,7.6E-1,2.52E0,-6.799684E-2,8.7E-1,6.3E-1,-5.482878E-2,2.6E-1,7.9E-1,-6.6576205E-2,-4.4847716E-2,-6.0411226E-2,1.0265782E-2,-6.21166E-3,-6.028026E-2,2.0155562E-2,5.6467693E-2,1.8121554E-2,-5.6287162E-2,-6.114081E-2,-5.0398577E-2],"split_indices":[6,2,0,3,2,0,0,3,2,0,0,0,3,0,2,1,2,0,0,0,0,0,0,0,0,0,0,0,0,0,0,0,0,0,0],"split_type":[0,0,0,0,0,0,0,0,0,0,0,0,0,0,0,0,0,0,0,0,0,0,0,0,0,0,0,0,0,0,0,0,0,0,0],"sum_hessian":[2.0241498E3,1.0578658E3,9.6628394E2,4.779189E2,5.7994696E2,2.7755432E2,2.0036461E2,1.5050765E1,5.648962E2,6.505214E1,1.3531247E2,4.8701086E0,1.0180656E1,7.7697945E1,4.8719827E2,4.9477882E1,1.5574256E1,1.2391469E2,1.1397787E1,6.285383E0,3.8952727E0,7.2574058E0,4.7994086E2,3.6175938E1,1.3301946E1,5.892702E0,9.681554E0,4.3421545E0,7.0556326E0,2.6667085E0,3.618675E0,2.8713923E0,4.386013E0,4.1041824E2,6.95226E1],"tree_param":{"num_deleted":"0","num_feature":"9","num_nodes":"35","size_leaf_vector":"1"}},{"base_weights":[8.534132E-3,-1.5252941E0,6.536734E-2,-6.386691E-2,-1.3847675E0,-2.7496186E-1,-1.4146744E0,-5.7448585E-2,5.700807E-2,-8.559895E-1,-1.43989E0,-6.2234778E-2,4.0685892E-1,-1.5605555E0,-1.2997946E0,4.3130957E-2,-4.2759705E-2,-3.1882375E-2,-6.366899E-2,-1.7928911E-2,-5.5874486E-2],"categories":[],"categories_nodes":[],"categories_segments":[],"categories_sizes":[],"default_left":[0,0,0,0,0,0,0,0,0,0,0,0,0,0,0,0,0,0,0,0,0],"id":6,"left_children":[1,3,-1,-1,5,7,9,-1,-1,11,13,-1,15,17,19,-1,-1,-1,-1,-1,-1],"loss_changes":[5.014054E3,8.167236E0,0E0,0E0,1.1428711E1,2.2943789E1,3.6484375E0,0E0,0E0,1.6036789E1,3.5507812E0,0E0,8.096303E0,2.832367E0,1.2492737E1,0E0,0E0,0E0,0E0,0E0,0E0],"parents":[2147483647,0,0,1,1,4,4,5,5,6,6,9,9,10,10,12,12,13,13,14,14],"right_children":[2,4,-1,-1,6,8,10,-1,-1,12,14,-1,16,18,20,-1,-1,-1,-1,-1,-1],"split_conditions":[1E0,4.08E0,6.536734E-2,-6.386691E-2,4.1E0,8.911E3,4.57E2,-5.7448585E-2,5.700807E-2,3.96E2,5.4E-1,-6.2234778E-2,5.1E-1,7.12E2,5.7E-1,4.3130957E-2,-4.2759705E-2,-3.1882375E-2,-6.366899E-2,-1.7928911E-2,-5.5874486E-2],"split_indices":[6,2,0,0,2,7,7,0,0,7,1,0,1,7,1,0,0,0,0,0,0],"split_type":[0,0,0,0,0,0,0,0,0,0,0,0,0,0,0,0,0,0,0,0,0],"sum_hessian":[2.008877E3,1.0336614E3,9.752155E2,6.78608E2,3.5505344E2,9.58435E0,3.454691E2,5.7869625E0,3.7973864E0,1.6428188E1,3.290409E2,1.0420846E1,6.007342E0,1.7133195E2,1.5770894E2,4.3141003E0,1.6932418E0,7.762412E0,1.6356955E2,1.6712055E1,1.4099689E2],"tree_param":{"num_deleted":"0","num_feature":"9","num_nodes":"21","size_leaf_vector":"1"}},{"base_weights":[-3.7484486E-2,-8.188076E-1,6.316065E-2,-1.411141E0,-4.9610034E-1,1.8774956E-2,-1.4524406E0,6.473523E-2,-1.1965244E0,-5.66246E-2,5.8790028E-2,-1.4645176E0,-2.1152999E-1,-1.5179212E0,-5.797607E-1,-1.4746447E0,-9.47168E-1,3.620042E-2,-4.7409438E-2,-6.5329306E-2,-1.4591383E0,6.1061587E-2,-1.4052768E0,-5.632973E-2,-6.4434215E-2,3.331512E-2,-5.8139604E-2,-6.336843E-2,-5.4401178E-2,-6.245915E-2,-4.6880126E-2],"categories":[],"categories_nodes":[],"categories_segments":[],"categories_sizes":[],"default_left":[0,0,0,0,0,0,0,0,0,0,0,0,0,0,0,0,0,0,0,0,0,0,0,0,0,0,0,0,0,0,0],"id":7,"left_children":[1,3,-1,5,7,9,11,-1,13,-1,-1,15,17,19,21,23,25,-1,-1,-1,27,-1,29,-1,-1,-1,-1,-1,-1,-1,-1],"loss_changes":[2.4968074E3,2.5404266E2,0E0,2.7750916E1,1.2818867E3,3.1563078E1,6.5284424E0,0E0,1.2791925E2,0E0,0E0,9.6984863E-1,7.1247573E0,5.081177E-1,3.9200485E2,1.7224731E0,1.1546675E1,0E0,0E0,0E0,1.4638062E0,0E0,4.0583496E0,0E0,0E0,0E0,0E0,0E0,0E0,0E0,0E0],"parents":[2147483647,0,0,1,1,3,3,4,4,5,5,6,6,8,8,11,11,12,12,13,13,14,14,15,15,16,16,20,20,22,22],"right_children":[2,4,-1,6,8,10,12,-1,14,-1,-1,16,18,20,22,24,26,-1,-1,-1,28,-1,30,-1,-1,-1,-1,-1,-1,-1,-1],"split_conditions":[4.5333335E-1,2.2166666E-1,6.316065E-2,1.1E-1,4.5E-1,5.5E-2,6.46E0,6.473523E-2,3.9E-1,-5.66246E-2,5.8790028E-2,5.72E0,1.2E1,5.6E-1,5.8E-1,3.4E-1,7.12E2,3.620042E-2,-4.7409438E-2,-6.5329306E-2,1.8E1,6.1061587E-2,3.88E0,-5.632973E-2,-6.4434215E-2,3.331512E-2,-5.8139604E-2,-6.336843E-2,-5.4401178E-2,-6.245915E-2,-4.6880126E-2],"split_indices":[8,8,0,0,0,8,2,0,8,0,0,2,3,0,0,0,7,0,0,0,3,0,2,0,0,0,0,0,0,0,0],"split_type":[0,0,0,0,0,0,0,0,0,0,0,0,0,0,0,0,0,0,0,0,0,0,0,0,0,0,0,0,0,0,0],"sum_hessian":[1.9748478E3,1.3316827E3,6.431651E2,4.6845483E2,8.632279E2,1.3165651E1,4.5528918E2,2.1446822E2,6.487597E2,6.632921E0,6.5327306E0,4.5072238E2,4.5667825E0,4.2554584E2,2.2321387E2,4.4025412E2,1.0468278E1,2.1602232E0,2.4065592E0,1.346417E2,2.9090414E2,6.261156E1,1.606023E2,3.035939E2,1.3666023E2,2.1754003E0,8.292877E0,1.2198191E2,1.6892223E2,9.278136E1,6.7820946E1],"tree_param":{"num_deleted":"0","num_feature":"9","num_nodes":"31","size_leaf_vector":"1"}},{"base_weights":[5.613953E-3,-7.629644E-1,6.1938297E-2,-4.5069206E-1,-1.4231198E0,-1.1444255E0,6.2561125E-2,-1.5557531E0,-1.3173944E0,-6.6873896E-1,-1.4207217E0,-4.4774285E-1,-6.371605E-2,3.6800005E-2,-1.3414295E0,-1.4377306E0,6.074083E-2,-1.2479469E0,-1.497542E0,4.5568537E-2,-5.1616542E-2,-1.2581624E0,-6.370797E-2,-2.6084783E-2,-5.8710918E-2,-5.459733E-2,-3.9878286E-2,-6.1464343E-2,-4.27137E-2,-5.1565755E-2,1.7752873E-2],"categories":[],"categories_nodes":[],"categories_segments":[],"categories_sizes":[],"default_left":[0,0,0,0,0,0,0,0,0,0,0,0,0,0,0,0,0,0,0,0,0,0,0,0,0,0,0,0,0,0,0],"id":8,"left_children":[1,3,-1,5,7,9,-1,11,13,15,17,19,-1,-1,21,23,-1,25,27,-1,-1,29,-1,-1,-1,-1,-1,-1,-1,-1,-1],"loss_changes":[2.32893E3,2.6961157E2,0E0,1.2477394E3,3.847351E0,8.627869E1,0E0,6.736725E0,1.4168518E1,4.15521E2,3.6917114E0,1.118195E1,0E0,0E0,2.9835205E0,3.346222E0,0E0,2.601471E0,3.1434326E0,0E0,0E0,1.0264099E1,0E0,0E0,0E0,0E0,0E0,0E0,0E0,0E0,0E0],"parents":[2147483647,0,0,1,1,3,3,4,4,5,5,7,7,8,8,9,9,10,10,11,11,14,14,15,15,17,17,18,18,21,21],"right_children":[2,4,-1,6,8,10,-1,12,14,16,18,20,-1,-1,22,24,-1,26,28,-1,-1,30,-1,-1,-1,-1,-1,-1,-1,-1,-1],"split_conditions":[4.5333335E-1,5.8E-1,6.1938297E-2,2.8666666E-1,3.39E0,2.4E-1,6.2561125E-2,5.9E-1,3.4E0,1.2E-1,3.4E-1,1.802E3,-6.371605E-2,3.6800005E-2,4.92E0,4.34E2,6.074083E-2,6.491E3,5.23E0,4.5568537E-2,-5.1616542E-2,4.9E0,-6.370797E-2,-2.6084783E-2,-5.8710918E-2,-5.459733E-2,-3.9878286E-2,-6.1464343E-2,-4.27137E-2,-5.1565755E-2,1.7752873E-2],"split_indices":[8,0,0,8,2,0,0,0,2,8,0,7,0,0,2,7,0,7,2,0,0,2,0,0,0,0,0,0,0,0,0],"split_type":[0,0,0,0,0,0,0,0,0,0,0,0,0,0,0,0,0,0,0,0,0,0,0,0,0,0,0,0,0,0,0],"sum_hessian":[1.9620256E3,1.3099636E3,6.520621E2,8.904419E2,4.195217E2,6.6268866E2,2.2775323E2,1.7999802E2,2.3952367E2,2.4474411E2,4.1794455E2,6.2624125E0,1.7373561E2,2.1495292E0,2.3737415E2,1.8133386E2,6.3410248E1,1.3394247E2,2.8400208E2,2.049948E0,4.2124643E0,1.8280313E2,5.4571003E1,7.5152736E0,1.7381859E2,8.833243E1,4.561004E1,2.5797223E2,2.6029835E1,1.7977325E2,3.0298796E0],"tree_param":{"num_deleted":"0","num_feature":"9","num_nodes":"31","size_leaf_vector":"1"}},{"base_weights":[2.3942564E-2,-1.3981792E0,6.0787074E-2,-1.4153204E0,-1.2069097E0,-1.3226358E0,-1.4595721E0,-1.4220302E0,-8.8144237E-1,-1.4564011E0,-1.1912516E0,-1.5226829E0,-1.3676202E0,-6.167225E-2,-9.5545834E-1,3.5807993E-2,-1.0126686E0,-1.225898E0,-6.187063E-2,-1.368381E0,-7.7549285E-1,-6.1553795E-2,-9.4662964E-1,-6.1908763E-2,-1.2217878E0,-1.6665404E-1,-5.5581506E-2,2.3670629E-2,-1.310031E0,-5.4432735E-2,3.2854848E-2,-5.844066E-2,-4.2353656E-2,-4.5536622E-2,-4.8604896E-3,1.6051587E-2,-5.6194134E-2,1.247659E-2,-5.1753934E-2,-4.8228744E-2,6.372095E-2,3.0662218E-2,-4.7414687E-2,-6.145988E-2,-3.615764E-3],"categories":[],"categories_nodes":[],"categories_segments":[],"categories_sizes":[],"default_left":[0,0,0,0,0,0,0,0,0,0,0,0,0,0,0,0,0,0,0,0,0,0,0,0,0,0,0,0,0,0,0,0,0,0,0,0,0,0,0,0,0,0,0,0,0],"id":9,"left_children":[1,3,-1,5,7,9,11,13,15,17,19,21,23,-1,25,-1,27,29,-1,31,33,-1,35,-1,37,39,-1,41,43,-1,-1,-1,-1,-1,-1,-1,-1,-1,-1,-1,-1,-1,-1,-1,-1],"loss_changes":[4.15704E3,1.576294E0,0E0,1.8166504E0,4.990982E0,3.6411743E0,1.4501953E0,1.4365158E0,9.794283E0,1.1674805E0,1.0708298E1,1.8218384E0,4.873932E0,0E0,4.3104916E0,0E0,1.1115437E1,1.3891029E1,0E0,1.6290741E0,1.1741837E1,0E0,8.104636E0,0E0,1.6658142E1,1.2607764E1,0E0,8.993894E0,7.5857315E0,0E0,0E0,0E0,0E0,0E0,0E0,0E0,0E0,0E0,0E0,0E0,0E0,0E0,0E0,0E0,0E0],"parents":[2147483647,0,0,1,1,3,3,4,4,5,5,6,6,7,7,8,8,9,9,10,10,11,11,12,12,14,14,16,16,17,17,19,19,20,20,22,22,24,24,25,25,27,27,28,28],"right_children":[2,4,-1,6,8,10,12,14,16,18,20,22,24,-1,26,-1,28,30,-1,32,34,-1,36,-1,38,40,-1,42,44,-1,-1,-1,-1,-1,-1,-1,-1,-1,-1,-1,-1,-1,-1,-1,-1],"split_conditions":[1E0,8.4E-1,6.0787074E-2,3.4E-1,3.88E0,2.2E-1,6.4E-1,2.8E1,3.91E0,2.94E0,2.8E1,5.72E0,3.39E0,-6.167225E-2,2.29E0,3.5807993E-2,7E0,2.93E0,-6.187063E-2,7.269E3,4.08E0,-6.1553795E-2,7.12E2,-6.1908763E-2,3.43E0,2.2E0,-5.5581506E-2,8.6E-1,8E-1,-5.4432735E-2,3.2854848E-2,-5.844066E-2,-4.2353656E-2,-4.5536622E-2,-4.8604896E-3,1.6051587E-2,-5.6194134E-2,1.247659E-2,-5.1753934E-2,-4.8228744E-2,6.372095E-2,3.0662218E-2,-4.7414687E-2,-6.145988E-2,-3.615764E-3],"split_indices":[6,0,0,0,2,0,0,3,2,2,3,2,2,0,2,0,3,2,0,7,2,0,7,0,2,2,0,0,1,0,0,0,0,0,0,0,0,0,0,0,0,0,0,0,0],"split_type":[0,0,0,0,0,0,0,0,0,0,0,0,0,0,0,0,0,0,0,0,0,0,0,0,0,0,0,0,0,0,0,0,0,0,0,0,0,0,0,0,0,0,0,0,0],"sum_hessian":[1.9523088E3,1.0008146E3,9.5149426E2,9.1262726E2,8.818733E1,3.0490222E2,6.0772504E2,5.1065758E1,3.712158E1,1.4608475E2,1.5881747E2,3.511531E2,2.565719E2,3.8800526E1,1.2265231E1,2.152848E0,3.496873E1,4.524346E1,1.00841286E2,1.09762924E2,4.9054546E1,3.399441E2,1.1209018E1,1.10497536E2,1.4607437E2,4.8449554E0,7.420275E0,8.001849E0,2.696688E1,4.276072E1,2.4827423E0,8.161741E1,2.8145517E1,3.1071083E1,1.7983461E1,2.8752825E0,8.3337345E0,6.4058895E0,1.3966847E2,3.2441428E0,1.6008128E0,5.183105E0,2.8187437E0,2.252464E1,4.442243E0],"tree_param":{"num_deleted":"0","num_feature":"9","num_nodes":"45","size_leaf_vector":"1"}},{"base_weights":[1.6298123E-2,-1.3550422E0,5.9372723E-2,-1.2508811E0,-1.4004711E0,-1.3387434E0,-1.0230303E0,-1.4317265E0,-1.275232E0,-5.8223967E-2,-1.1917579E0,-5.97376E-2,-6.215056E-1,-6.00421E-2,-1.3702247E0,-1.3456163E0,-5.6378406E-1,2.518492E-1,-1.2452842E0,4.043647E-2,-7.148432E-1,-1.256332E0,-6.086211E-2,-6.854633E-1,-1.4244351E0,7.249893E-1,-5.5494633E-2,-3.2732435E-2,3.449204E-2,-4.087099E-2,-5.5487268E-2,-3.8265936E-2,-1.6071743E-3,-5.4357257E-2,-5.145497E-4,-4.023702E-2,4.244275E-2,-6.10602E-2,-4.8950016E-2,7.2983794E-2,-4.194447E-2],"categories":[],"categories_nodes":[],"categories_segments":[],"categories_sizes":[],"default_left":[0,0,0,0,0,0,0,0,0,0,0,0,0,0,0,0,0,0,0,0,0,0,0,0,0,0,0,0,0,0,0,0,0,0,0,0,0,0,0,0,0],"id":10,"left_children":[1,3,-1,5,7,9,11,13,15,-1,17,-1,19,-1,21,23,25,27,29,-1,31,33,-1,35,37,39,-1,-1,-1,-1,-1,-1,-1,-1,-1,-1,-1,-1,-1,-1,-1],"loss_changes":[3.79867E3,2.8648682E0,0E0,4.7491455E0,8.0041504E-1,1.9983215E0,1.5938736E1,1.9787598E-1,6.4097137E0,0E0,8.178024E0,0E0,8.324142E0,0E0,3.1157227E0,5.7641144E0,1.6511366E1,3.6261666E0,1.70047E0,0E0,7.7558136E0,2.1947266E1,0E0,9.879692E0,4.8349E-1,1.4302208E1,0E0,0E0,0E0,0E0,0E0,0E0,0E0,0E0,0E0,0E0,0E0,0E0,0E0,0E0,0E0],"parents":[2147483647,0,0,1,1,3,3,4,4,5,5,6,6,7,7,8,8,10,10,12,12,14,14,15,15,16,16,17,17,18,18,20,20,21,21,23,23,24,24,25,25],"right_children":[2,4,-1,6,8,10,12,14,16,-1,18,-1,20,-1,22,24,26,28,30,-1,32,34,-1,36,38,40,-1,-1,-1,-1,-1,-1,-1,-1,-1,-1,-1,-1,-1,-1,-1],"split_conditions":[1E0,3.4E-1,5.9372723E-2,2.8E1,7.9E-1,5.6E-1,2.2E-1,1.8E1,9.169E3,-5.8223967E-2,5.7E-1,-5.97376E-2,4.34E2,-6.00421E-2,5.7E-1,7.84E2,7E0,2.2E-1,2E-1,4.043647E-2,3.1E-1,5.4E-1,-6.086211E-2,7.5E2,6.7E-1,2.4E-1,-5.5494633E-2,-3.2732435E-2,3.449204E-2,-4.087099E-2,-5.5487268E-2,-3.8265936E-2,-1.6071743E-3,-5.4357257E-2,-5.145497E-4,-4.023702E-2,4.244275E-2,-6.10602E-2,-4.8950016E-2,7.2983794E-2,-4.194447E-2],"split_indices":[6,0,0,3,0,1,0,3,7,0,1,0,7,0,1,7,3,0,0,0,0,1,0,7,1,1,0,0,0,0,0,0,0,0,0,0,0,0,0,0,0],"split_type":[0,0,0,0,0,0,0,0,0,0,0,0,0,0,0,0,0,0,0,0,0,0,0,0,0,0,0,0,0,0,0,0,0,0,0,0,0,0,0,0,0],"sum_hessian":[1.8849247E3,9.7459283E2,9.103319E2,3.0463904E2,6.6995374E2,2.1633997E2,8.829909E1,5.278008E2,1.4215298E2,1.1556271E2,1.0077725E2,3.940932E1,4.8889767E1,2.3711426E2,2.9068652E2,1.2854456E2,1.3608434E1,3.470566E0,9.730669E1,2.112512E0,4.6777252E1,1.7116576E2,1.1952076E2,1.4744822E1,1.1379973E2,5.352438E0,8.255996E0,1.1369396E0,2.3336263E0,4.0971447E1,5.6335236E1,3.4127647E1,1.2649605E1,1.5803346E2,1.3132292E1,1.2817119E1,1.927703E0,7.10544E1,4.2745335E1,3.2862573E0,2.0661807E0],"tree_param":{"num_deleted":"0","num_feature":"9","num_nodes":"41","size_leaf_vector":"1"}},{"base_weights":[-6.7111505E-3,-1.3387306E0,5.8154482E-2,-1.4097382E0,-1.1995661E0,-1.3722866E0,-5.9881102E-2,2.9978284E-1,-1.2487605E0,-5.5391744E-2,-4.9864E-1,8.7417775E-1,-4.4692975E-2,-6.5389454E-1,-1.2756962E0,-5.0506324E-2,5.3296115E-2,-5.932683E-3,7.018089E-2,-5.5912994E-2,6.076495E-1,-1.4192623E0,-1.1176765E0,-4.2082965E-2,4.4174284E-2,4.6744566E-2,-3.5748392E-2,-2.7867472E-2,-5.836729E-2,1.5524558E-2,-4.76446E-2],"categories":[],"categories_nodes":[],"categories_segments":[],"categories_sizes":[],"default_left":[0,0,0,0,0,0,0,0,0,0,0,0,0,0,0,0,0,0,0,0,0,0,0,0,0,0,0,0,0,0,0],"id":11,"left_children":[1,3,-1,5,7,9,-1,11,13,-1,15,17,-1,19,21,-1,-1,23,-1,-1,25,27,29,-1,-1,-1,-1,-1,-1,-1,-1],"loss_changes":[3.578832E3,7.816162E0,0E0,9.521484E-3,2.4844727E1,4.2680054E0,0E0,1.0211957E1,4.3158264E0,0E0,1.282856E1,6.700371E0,0E0,1.5841748E1,5.3656616E0,0E0,0E0,7.3346725E0,0E0,0E0,6.622231E0,3.507965E0,1.7114105E1,0E0,0E0,0E0,0E0,0E0,0E0,0E0,0E0],"parents":[2147483647,0,0,1,1,3,3,4,4,5,5,7,7,8,8,10,10,11,11,13,13,14,14,17,17,20,20,21,21,22,22],"right_children":[2,4,-1,6,8,10,-1,12,14,-1,16,18,-1,20,22,-1,-1,24,-1,-1,26,28,30,-1,-1,-1,-1,-1,-1,-1,-1],"split_conditions":[1E0,4.08E0,5.8154482E-2,7.2E-1,4.1E0,7.1E-1,-5.9881102E-2,3.4E-1,4.57E2,-5.5391744E-2,8.5E-1,7.6E-1,-4.4692975E-2,3.96E2,5.4E-1,-5.0506324E-2,5.3296115E-2,3.3E-1,7.018089E-2,-5.5912994E-2,5.1E-1,4.15E0,5.5E-1,-4.2082965E-2,4.4174284E-2,4.6744566E-2,-3.5748392E-2,-2.7867472E-2,-5.836729E-2,1.5524558E-2,-4.76446E-2],"split_indices":[6,2,0,1,2,1,0,1,7,0,0,0,0,7,1,0,0,1,0,0,1,2,1,0,0,0,0,0,0,0,0],"split_type":[0,0,0,0,0,0,0,0,0,0,0,0,0,0,0,0,0,0,0,0,0,0,0,0,0,0,0,0,0,0,0],"sum_hessian":[1.8375317E3,9.611038E2,8.764279E2,6.303453E2,3.3075854E2,4.5279453E2,1.7755075E2,1.0345765E1,3.2041278E2,4.45827E2,6.96754E0,7.6344323E0,2.711333E0,1.4974795E1,3.05438E2,5.1352353E0,1.8323044E0,4.31442E0,3.320012E0,9.351943E0,5.622852E0,1.5585602E2,1.4958197E2,2.2483778E0,2.0660422E0,4.254747E0,1.368105E0,9.125792E0,1.4673022E2,6.756718E0,1.4282526E2],"tree_param":{"num_deleted":"0","num_feature":"9","num_nodes":"31","size_leaf_vector":"1"}},{"base_weights":[5.8679306E-3,-6.821445E-1,5.7002325E-2,-3.9948705E-1,-1.2714926E0,-1.0118681E0,1.4344997E0,-1.2881072E0,-4.7745878E-1,-5.1797026E-1,-1.3058146E0,2.1814307E-2,5.756349E-2,-1.4282949E0,-1.1707987E0,3.5413217E-2,-5.090441E-2,-1.2362101E0,1.3876671E0,-1.1129494E0,-1.3922169E0,-5.8522463E-2,-1.1330123E0,3.895022E-2,-1.1965523E0,-5.0773013E-2,1.4872074E-2,5.6591373E-2,2.7907655E-2,-5.2454516E-2,-2.3801297E-2,-5.7433315E-2,-3.617251E-2,-5.580327E-2,-9.932255E-3,-5.1313013E-2,-2.6355669E-2],"categories":[],"categories_nodes":[],"categories_segments":[],"categories_sizes":[],"default_left":[0,0,0,0,0,0,0,0,0,0,0,0,0,0,0,0,0,0,0,0,0,0,0,0,0,0,0,0,0,0,0,0,0,0,0,0,0],"id":12,"left_children":[1,3,-1,5,7,9,11,13,15,17,19,-1,-1,21,23,-1,-1,25,27,29,31,-1,33,-1,35,-1,-1,-1,-1,-1,-1,-1,-1,-1,-1,-1,-1],"loss_changes":[1.7790397E3,2.039093E2,0E0,9.3453094E2,4.626526E0,8.983209E1,6.512451E-2,4.7178345E0,1.1672459E1,3.2234604E2,4.9522705E0,0E0,0E0,1.1300659E-1,1.3155457E1,0E0,0E0,9.559723E0,2.2151184E-1,1.2136673E1,4.350769E0,0E0,4.893797E0,0E0,9.126221E0,0E0,0E0,0E0,0E0,0E0,0E0,0E0,0E0,0E0,0E0,0E0,0E0],"parents":[2147483647,0,0,1,1,3,3,4,4,5,5,6,6,7,7,8,8,9,9,10,10,13,13,14,14,17,17,18,18,19,19,20,20,22,22,24,24],"right_children":[2,4,-1,6,8,10,12,14,16,18,20,-1,-1,22,24,-1,-1,26,28,30,32,-1,34,-1,36,-1,-1,-1,-1,-1,-1,-1,-1,-1,-1,-1,-1],"split_conditions":[4.5333335E-1,5.7E-1,5.7002325E-2,2.85E-1,4.5E-1,2.4E-1,3.8E-1,3.39E0,5.8E-1,1.2E-1,3.4E-1,2.1814307E-2,5.756349E-2,8.6E-1,3.4E0,3.5413217E-2,-5.090441E-2,6.46E0,9.1E-1,2.8E1,5.23E0,-5.8522463E-2,2.8E1,3.895022E-2,8.564E3,-5.0773013E-2,1.4872074E-2,5.6591373E-2,2.7907655E-2,-5.2454516E-2,-2.3801297E-2,-5.7433315E-2,-3.617251E-2,-5.580327E-2,-9.932255E-3,-5.1313013E-2,-2.6355669E-2],"split_indices":[8,0,0,8,8,0,2,2,0,8,0,0,0,0,2,0,0,2,1,3,2,0,3,0,7,0,0,0,0,0,0,0,0,0,0,0,0],"split_type":[0,0,0,0,0,0,0,0,0,0,0,0,0,0,0,0,0,0,0,0,0,0,0,0,0,0,0,0,0,0,0,0,0,0,0,0,0],"sum_hessian":[1.8200062E3,1.2261146E3,5.9389154E2,8.298079E2,3.9630667E2,6.224243E2,2.0738359E2,3.875747E2,8.731954E0,2.3325844E2,3.891659E2,1.6798221E0,2.0570378E2,1.7147758E2,2.1609714E2,3.1757348E0,5.556219E0,1.6966321E2,6.359523E1,1.2469831E2,2.644676E2,1.498763E2,2.1601282E1,2.127481E0,2.1396967E2,1.6644604E2,3.2171555E0,6.017958E1,3.4156482E0,8.905096E1,3.5647354E1,2.4098227E2,2.3485332E1,1.6219746E1,5.3815365E0,1.8318916E2,3.0780506E1],"tree_param":{"num_deleted":"0","num_feature":"9","num_nodes":"37","size_leaf_vector":"1"}},{"base_weights":[-7.8768714E-4,-1.2950579E0,5.600314E-2,-1.3278438E0,-1.2038232E0,-5.426734E-2,-1.1607299E0,-1.1049076E0,-5.7760376E-2,-3.5485044E-1,-1.2556959E0,-1.2041068E0,-6.212716E-1,5.67612E-1,-5.021966E-2,-1.3101158E0,-2.7156237E-1,-1.0238035E0,-5.7106778E-2,-1.3446054E-1,-5.3794637E-2,5.9929915E-2,-4.0137816E-2,-5.7716984E-2,-4.1947566E-2,4.4890527E-2,-4.587629E-2,-5.657796E-2,-2.7336143E-2,-5.2875306E-2,3.900589E-2],"categories":[],"categories_nodes":[],"categories_segments":[],"categories_sizes":[],"default_left":[0,0,0,0,0,0,0,0,0,0,0,0,0,0,0,0,0,0,0,0,0,0,0,0,0,0,0,0,0,0,0],"id":13,"left_children":[1,3,-1,5,7,-1,9,11,-1,13,15,17,19,21,-1,23,25,27,-1,29,-1,-1,-1,-1,-1,-1,-1,-1,-1,-1,-1],"loss_changes":[3.239514E3,1.1794434E0,0E0,1.6710205E0,4.491699E0,0E0,7.6700897E0,8.162842E0,0E0,1.1158332E1,4.7037506E0,4.7079773E0,1.1682524E1,1.159161E1,0E0,1.5858917E0,8.865938E0,1.0769951E1,0E0,2.9280136E1,0E0,0E0,0E0,0E0,0E0,0E0,0E0,0E0,0E0,0E0,0E0],"parents":[2147483647,0,0,1,1,3,3,4,4,6,6,7,7,9,9,10,10,11,11,12,12,13,13,15,15,16,16,17,17,19,19],"right_children":[2,4,-1,6,8,-1,10,12,-1,14,16,18,20,22,-1,24,26,28,-1,30,-1,-1,-1,-1,-1,-1,-1,-1,-1,-1,-1],"split_conditions":[1E0,2.8E1,5.600314E-2,7.9E-1,6.5E-1,-5.426734E-2,8E-1,5.6E-1,-5.7760376E-2,5.1E-1,4E0,3.4E-1,5.7E-1,1.2E1,-5.021966E-2,6.7E-1,8E-2,2.2E-1,-5.7106778E-2,3.8E-1,-5.3794637E-2,5.9929915E-2,-4.0137816E-2,-5.7716984E-2,-4.1947566E-2,4.4890527E-2,-4.587629E-2,-5.657796E-2,-2.7336143E-2,-5.2875306E-2,3.900589E-2],"split_indices":[6,3,0,0,0,0,0,0,0,1,5,0,1,3,0,1,1,0,0,1,0,0,0,0,0,0,0,0,0,0,0],"split_type":[0,0,0,0,0,0,0,0,0,0,0,0,0,0,0,0,0,0,0,0,0,0,0,0,0,0,0,0,0,0,0],"sum_hessian":[1.7847273E3,9.27697E2,8.570303E2,6.724813E2,2.5521568E2,5.6743726E2,1.0504408E2,1.8473622E2,7.0479454E1,1.1572947E1,9.347114E1,1.5205779E2,3.2678436E1,5.8998847E0,5.6730623E0,8.82594E1,5.211739E0,8.726117E1,6.479662E1,2.0244446E1,1.243399E1,3.7342176E0,2.165667E0,5.552991E1,3.2729485E1,1.9016424E0,3.3100965E0,3.91626E1,4.8098564E1,9.686909E0,1.0557536E1],"tree_param":{"num_deleted":"0","num_feature":"9","num_nodes":"31","size_leaf_vector":"1"}},{"base_weights":[6.808264E-3,-1.2773104E0,1.3713742E0,-1.2990992E0,-1.0282093E0,1.9086458E-2,5.4899175E-2,-5.6538854E-2,-1.2678387E0,-8.082871E-1,-5.5812094E-2,4.8296113E-2,-1.2765112E0,-1.157719E0,-3.8607723E-1,-4.1351438E-2,6.2401522E-2,-1.2104791E0,-1.3603804E0,-5.4325855E-1,-5.4882597E-2,4.6821702E-2,-5.668632E-1,-4.994032E-2,-2.7154978E-2,-5.6053724E-2,-4.4846166E-2,-4.970386E-2,6.37084E-2,-3.9270807E-2,1.070938E-2],"categories":[],"categories_nodes":[],"categories_segments":[],"categories_sizes":[],"default_left":[0,0,0,0,0,0,0,0,0,0,0,0,0,0,0,0,0,0,0,0,0,0,0,0,0,0,0,0,0,0,0],"id":14,"left_children":[1,3,5,7,9,-1,-1,-1,11,13,-1,15,17,19,21,-1,-1,23,25,27,-1,-1,29,-1,-1,-1,-1,-1,-1,-1,-1],"loss_changes":[3.0971118E3,3.6065674E0,1.920166E-1,1.1881104E0,5.1723633E0,0E0,0E0,0E0,7.644409E0,7.1035805E0,0E0,1.0302897E1,2.008667E0,2.876873E0,7.607765E0,0E0,0E0,6.8013916E0,1.1987915E0,1.5076623E1,0E0,0E0,8.151875E0,0E0,0E0,0E0,0E0,0E0,0E0,0E0,0E0],"parents":[2147483647,0,0,1,1,2,2,3,3,4,4,8,8,9,9,11,11,12,12,13,13,14,14,17,17,18,18,19,19,22,22],"right_children":[2,4,6,8,10,-1,-1,-1,12,14,-1,16,18,20,22,-1,-1,24,26,28,-1,-1,30,-1,-1,-1,-1,-1,-1,-1,-1],"split_conditions":[1E0,8.4E-1,3.8E-1,2.55E0,8.8E-1,1.9086458E-2,5.4899175E-2,-5.6538854E-2,2.57E0,3.88E0,-5.5812094E-2,4E0,5.7E-1,2.29E0,3.91E0,-4.1351438E-2,6.2401522E-2,5.4E-1,8.313E3,2.23E0,-5.4882597E-2,4.6821702E-2,6.7E-1,-4.994032E-2,-2.7154978E-2,-5.6053724E-2,-4.4846166E-2,-4.970386E-2,6.37084E-2,-3.9270807E-2,1.070938E-2],"split_indices":[6,0,2,2,0,0,0,0,2,2,0,5,1,2,2,0,0,1,7,2,0,0,1,0,0,0,0,0,0,0,0],"split_type":[0,0,0,0,0,0,0,0,0,0,0,0,0,0,0,0,0,0,0,0,0,0,0,0,0,0,0,0,0,0,0],"sum_hessian":[1.7654912E3,9.0958984E2,8.559014E2,8.325517E2,7.703813E1,1.5906926E0,8.543107E2,1.692182E2,6.633335E2,5.01785E1,2.6859632E1,4.3123837E0,6.590211E2,2.6502384E1,2.3676117E1,2.697626E0,1.6147577E0,3.7735486E2,2.8166623E2,7.768138E0,1.8734245E1,1.8939455E0,2.1782171E1,3.50904E2,2.6450867E1,2.3633995E2,4.532629E1,6.1671886E0,1.600949E0,1.4431459E1,7.3507113E0],"tree_param":{"num_deleted":"0","num_feature":"9","num_nodes":"31","size_leaf_vector":"1"}},{"base_weights":[2.0238612E-2,-1.2295722E0,5.419043E-2,-1.2701885E0,-1.156905E0,-1.1930292E0,-5.3452067E-2,1.2849581E-2,-1.172952E0,-1.2907683E0,-7.638586E-1,-4.1318245E-2,6.161351E-2,-1.0062646E0,-1.2770451E0,-5.449612E-2,-1.0996896E0,7.2876066E-1,-9.6113557E-1,-1.0772307E0,-2.246786E-1,-9.760042E-1,-1.3643714E0,-3.5144553E-2,-5.4799736E-2,6.2039603E-2,-3.659897E-2,-5.4379776E-2,-1.1149076E-2,-4.887873E-2,-3.1203832E-2,-4.544679E-2,1.6816352E-2,-4.7914352E-2,-9.804565E-3,-3.722575E-2,-5.6284312E-2],"categories":[],"categories_nodes":[],"categories_segments":[],"categories_sizes":[],"default_left":[0,0,0,0,0,0,0,0,0,0,0,0,0,0,0,0,0,0,0,0,0,0,0,0,0,0,0,0,0,0,0,0,0,0,0,0,0],"id":15,"left_children":[1,3,-1,5,7,9,-1,11,13,15,17,-1,-1,19,21,-1,23,25,27,29,31,33,35,-1,-1,-1,-1,-1,-1,-1,-1,-1,-1,-1,-1,-1,-1],"loss_changes":[2.8789585E3,1.161377E0,0E0,1.2703857E0,6.2244263E0,1.0274933E1,0E0,1.03222885E1,4.377075E0,1.4749146E0,1.608507E1,0E0,0E0,6.9775543E0,3.851593E0,0E0,2.6454773E0,1.0431136E1,1.2283279E1,4.1673126E0,7.5912976E0,7.4647675E0,1.4768066E0,0E0,0E0,0E0,0E0,0E0,0E0,0E0,0E0,0E0,0E0,0E0,0E0,0E0,0E0],"parents":[2147483647,0,0,1,1,3,3,4,4,5,5,7,7,8,8,9,9,10,10,13,13,14,14,16,16,17,17,18,18,19,19,20,20,21,21,22,22],"right_children":[2,4,-1,6,8,10,-1,12,14,16,18,-1,-1,20,22,-1,24,26,28,30,32,34,36,-1,-1,-1,-1,-1,-1,-1,-1,-1,-1,-1,-1,-1,-1],"split_conditions":[1E0,6.325E3,5.419043E-2,3.03E3,6.366E3,2.531E3,-5.3452067E-2,3.8E-1,3.9E-1,2.8E1,2.57E3,-4.1318245E-2,6.161351E-2,3.6E-1,1.45E-1,-5.449612E-2,5.5E-1,1.7E-1,6.7E-1,8.799E3,2.7E-1,1.25E-1,3E0,-3.5144553E-2,-5.4799736E-2,6.2039603E-2,-3.659897E-2,-5.4379776E-2,-1.1149076E-2,-4.887873E-2,-3.1203832E-2,-4.544679E-2,1.6816352E-2,-4.7914352E-2,-9.804565E-3,-3.722575E-2,-5.6284312E-2],"split_indices":[6,7,0,7,7,7,0,8,1,3,7,0,0,1,8,0,1,8,1,7,8,8,3,0,0,0,0,0,0,0,0,0,0,0,0,0,0],"split_type":[0,0,0,0,0,0,0,0,0,0,0,0,0,0,0,0,0,0,0,0,0,0,0,0,0,0,0,0,0,0,0,0,0,0,0,0,0],"sum_hessian":[1.7240988E3,8.903469E2,8.337518E2,5.6055383E2,3.297931E2,2.6745645E2,2.930974E2,4.4656825E0,3.2532742E2,2.162094E2,5.124704E1,2.842975E0,1.6227077E0,1.2916249E2,1.9616492E2,1.5279643E2,6.341296E1,5.6680264E0,4.5579014E1,1.1806429E2,1.1098206E1,4.6846546E1,1.4931837E2,3.7221096E1,2.6191864E1,3.8157396E0,1.852287E0,2.815261E1,1.7426403E1,7.729874E1,4.0765556E1,4.283902E0,6.8143034E0,3.54478E1,1.13987465E1,1.5436048E1,1.3388232E2],"tree_param":{"num_deleted":"0","num_feature":"9","num_nodes":"37","size_leaf_vector":"1"}},{"base_weights":[1.4145034E-3,-1.2128147E0,5.3272303E-2,-1.2891479E0,-1.1137369E0,-1.1468972E0,-5.371568E-2,2.8829974E-1,-1.1281308E0,-1.2178333E0,-5.209412E-1,-3.7721973E-2,6.2848076E-2,-7.076021E-1,-1.169777E0,-9.969242E-1,-5.471558E-2,-4.7799163E-2,4.7970537E-2,-2.9174516E-1,-5.2389428E-2,-1.306786E0,-1.0559988E0,-4.4565372E-2,8.305214E-2,-4.2360518E-2,2.5717054E-2,-2.6270138E-2,3.314812E-2,-5.3739026E-2,-2.3521084E-2,-4.426521E-2,-9.952273E-3],"categories":[],"categories_nodes":[],"categories_segments":[],"categories_sizes":[],"default_left":[0,0,0,0,0,0,0,0,0,0,0,0,0,0,0,0,0,0,0,0,0,0,0,0,0,0,0,0,0,0,0,0,0],"id":16,"left_children":[1,3,-1,5,7,9,-1,11,13,15,17,-1,-1,19,21,23,-1,-1,25,27,-1,29,31,-1,-1,-1,-1,-1,-1,-1,-1,-1,-1],"loss_changes":[2.704956E3,5.1851807E0,0E0,2.1917114E0,8.161865E0,5.613327E0,0E0,8.97364E0,5.9076233E0,2.8009644E0,6.2195873E0,0E0,0E0,8.929094E0,4.050995E0,2.1947502E1,0E0,0E0,7.0534725E0,1.0065673E1,0E0,3.267212E0,7.716385E0,0E0,0E0,0E0,0E0,0E0,0E0,0E0,0E0,0E0,0E0],"parents":[2147483647,0,0,1,1,3,3,4,4,5,5,7,7,8,8,9,9,10,10,13,13,14,14,15,15,18,18,19,19,21,21,22,22],"right_children":[2,4,-1,6,8,10,-1,12,14,16,18,-1,-1,20,22,24,-1,-1,26,28,-1,30,32,-1,-1,-1,-1,-1,-1,-1,-1,-1,-1],"split_conditions":[1E0,3.75E0,5.3272303E-2,1.6E-1,3.76E0,1.5E-1,-5.371568E-2,9E-1,7.84E2,4.331E3,2.4E1,-3.7721973E-2,6.2848076E-2,5.1E-1,1.8E1,4.288E3,-5.471558E-2,-4.7799163E-2,2.4E0,6.83E2,-5.2389428E-2,9.438E3,9.5E-1,-4.4565372E-2,8.305214E-2,-4.2360518E-2,2.5717054E-2,-2.6270138E-2,3.314812E-2,-5.3739026E-2,-2.3521084E-2,-4.426521E-2,-9.952273E-3],"split_indices":[6,2,0,8,2,8,0,1,7,7,3,0,0,1,3,7,0,0,2,7,0,7,1,0,0,0,0,0,0,0,0,0,0],"split_type":[0,0,0,0,0,0,0,0,0,0,0,0,0,0,0,0,0,0,0,0,0,0,0,0,0,0,0,0,0,0,0,0,0],"sum_hessian":[1.6724785E3,8.744604E2,7.980181E2,4.871393E2,3.873211E2,1.3970546E2,3.4743384E2,3.7426207E0,3.835785E2,1.24635635E2,1.5069822E1,2.0448508E0,1.6977698E0,3.618511E1,3.4739337E2,5.350724E1,7.1128395E1,6.393929E0,8.675894E0,2.2281296E1,1.39038105E1,1.5284999E2,1.9454338E2,5.215555E1,1.3516923E0,2.7602136E0,5.91568E0,1.7118464E1,5.1628323E0,1.445996E2,8.250397E0,1.8271173E2,1.1831663E1],"tree_param":{"num_deleted":"0","num_feature":"9","num_nodes":"33","size_leaf_vector":"1"}},{"base_weights":[7.6303445E-3,-6.445319E-1,5.239168E-2,-1.1577535E0,-3.6770564E-1,-1.1721905E0,1.3285993E-1,5.239538E-2,-8.863155E-1,-1.0675207E0,-5.4040298E-2,-4.1256562E-2,6.757921E-2,-1.1780266E0,-3.6790606E-1,-1.1362846E0,2.3613814E-2,-5.451743E-2,-1.0328839E0,1.2555026E0,-1.0578904E0,-4.9951643E-2,-3.9468832E-2,2.6857594E-2,-2.8552387E-2,-5.059345E-2,-3.402746E-2,5.140983E-2,2.1448681E-2,-5.0985407E-2,-3.02865E-2],"categories":[],"categories_nodes":[],"categories_segments":[],"categories_sizes":[],"default_left":[0,0,0,0,0,0,0,0,0,0,0,0,0,0,0,0,0,0,0,0,0,0,0,0,0,0,0,0,0,0,0],"id":17,"left_children":[1,3,-1,5,7,9,11,-1,13,15,-1,-1,-1,17,19,21,23,-1,25,27,29,-1,-1,-1,-1,-1,-1,-1,-1,-1,-1],"loss_changes":[1.3794006E3,1.5333789E2,0E0,7.213043E0,6.1410925E2,5.5704346E0,1.0964054E1,0E0,8.1040405E1,1.8116608E1,0E0,0E0,0E0,7.8327637E0,2.202584E2,2.5845642E0,7.7755466E0,0E0,7.2504883E0,5.6775665E-1,8.010284E0,0E0,0E0,0E0,0E0,0E0,0E0,0E0,0E0,0E0,0E0],"parents":[2147483647,0,0,1,1,3,3,4,4,5,5,6,6,8,8,9,9,13,13,14,14,15,15,16,16,18,18,19,19,20,20],"right_children":[2,4,-1,6,8,10,12,-1,14,16,-1,-1,-1,18,20,22,24,-1,26,28,30,-1,-1,-1,-1,-1,-1,-1,-1,-1,-1],"split_conditions":[4.5333335E-1,2.2166666E-1,5.239168E-2,6.46E0,4.5E-1,3.2E-1,8.6E-1,5.239538E-2,3.9E-1,1.55E-1,-5.4040298E-2,-4.1256562E-2,6.757921E-2,1.8E1,5.8E-1,2.2E-1,3.494E3,-5.451743E-2,3.39E0,9.1E-1,3.88E0,-4.9951643E-2,-3.9468832E-2,2.6857594E-2,-2.8552387E-2,-5.059345E-2,-3.402746E-2,5.140983E-2,2.1448681E-2,-5.0985407E-2,-3.02865E-2],"split_indices":[8,8,0,2,0,0,1,0,8,8,0,0,0,3,0,0,7,0,2,1,2,0,0,0,0,0,0,0,0,0,0],"split_type":[0,0,0,0,0,0,0,0,0,0,0,0,0,0,0,0,0,0,0,0,0,0,0,0,0,0,0,0,0,0,0],"sum_hessian":[1.6223195E3,1.0812843E3,5.4103516E2,3.7775812E2,7.035262E2,3.7366992E2,4.0881944E0,1.6577013E2,5.377561E2,2.4009879E2,1.3357114E2,2.5318782E0,1.5563161E0,3.4330478E2,1.9445131E2,2.2582574E2,1.4273034E1,1.4728104E2,1.9602374E2,5.7751904E1,1.366994E2,1.24684525E2,1.0114122E2,7.645737E0,6.6272964E0,8.362278E1,1.1240096E2,5.470304E1,3.0488605E0,7.756048E1,5.913893E1],"tree_param":{"num_deleted":"0","num_feature":"9","num_nodes":"31","size_leaf_vector":"1"}},{"base_weights":[1.0788111E-2,-1.1492022E0,5.1678974E-2,-1.1685684E0,-9.3109155E-1,-1.2225709E0,-1.0639111E0,-7.2001827E-1,-5.253566E-2,-8.9249283E-1,-1.2403283E0,-7.278391E-1,-1.1631889E0,-7.621238E-2,-8.7231886E-1,-5.2008133E-2,3.528622E-2,-1.1870979E0,-5.3646937E-2,-1.9039373E-1,-1.0112939E0,-6.954667E-1,-1.2099731E0,-4.3771077E-2,6.469765E-1,-5.63976E-1,-5.16964E-2,3.378932E-2,-1.3633487E-2,-4.8264343E-2,2.4396395E-2,-2.9653639E-2,1.636657E-2,-5.0953697E-2,-3.0677075E-2,-5.0388172E-2,1.5052268E-2,-4.1460514E-2,-5.0269213E-2,4.6438072E-2,-3.204071E-2,-3.0909246E-2,5.4075137E-2],"categories":[],"categories_nodes":[],"categories_segments":[],"categories_sizes":[],"default_left":[0,0,0,0,0,0,0,0,0,0,0,0,0,0,0,0,0,0,0,0,0,0,0,0,0,0,0,0,0,0,0,0,0,0,0,0,0,0,0,0,0,0,0],"id":18,"left_children":[1,3,-1,5,7,9,11,13,-1,15,17,19,21,23,25,-1,27,29,-1,31,33,35,37,-1,39,41,-1,-1,-1,-1,-1,-1,-1,-1,-1,-1,-1,-1,-1,-1,-1,-1,-1],"loss_changes":[2.3979543E3,2.4890137E0,0E0,3.072754E0,5.0238953E0,1.8457031E0,8.198334E0,4.8240147E0,0E0,1.1122477E1,9.6014404E-1,9.632378E0,3.7012634E0,8.539824E0,4.483364E0,0E0,3.3060215E0,1.1951996E1,0E0,8.066332E0,1.7171631E0,1.3311959E1,2.1707153E-1,0E0,6.026361E0,1.1035366E1,0E0,0E0,0E0,0E0,0E0,0E0,0E0,0E0,0E0,0E0,0E0,0E0,0E0,0E0,0E0,0E0,0E0],"parents":[2147483647,0,0,1,1,3,3,4,4,5,5,6,6,7,7,9,9,10,10,11,11,12,12,13,13,14,14,16,16,17,17,19,19,20,20,21,21,22,22,24,24,25,25],"right_children":[2,4,-1,6,8,10,12,14,-1,16,18,20,22,24,26,-1,28,30,-1,32,34,36,38,-1,40,42,-1,-1,-1,-1,-1,-1,-1,-1,-1,-1,-1,-1,-1,-1,-1,-1,-1],"split_conditions":[1E0,8.4E-1,5.1678974E-2,6.566E3,8.8E-1,4.57E2,7.306E3,7E0,-5.253566E-2,3.96E2,4.585E3,3.1E-1,3E0,3E0,6.366E3,-5.2008133E-2,1.2E1,4.558E3,-5.3646937E-2,2.4E1,2E0,7.3E-1,2.7E-1,-4.3771077E-2,8.6E-1,6.325E3,-5.16964E-2,3.378932E-2,-1.3633487E-2,-4.8264343E-2,2.4396395E-2,-2.9653639E-2,1.636657E-2,-5.0953697E-2,-3.0677075E-2,-5.0388172E-2,1.5052268E-2,-4.1460514E-2,-5.0269213E-2,4.6438072E-2,-3.204071E-2,-3.0909246E-2,5.4075137E-2],"split_indices":[6,0,0,7,0,7,7,3,0,7,7,0,3,3,7,0,3,7,0,3,5,0,0,0,0,7,0,0,0,0,0,0,0,0,0,0,0,0,0,0,0,0,0],"split_type":[0,0,0,0,0,0,0,0,0,0,0,0,0,0,0,0,0,0,0,0,0,0,0,0,0,0,0,0,0,0,0,0,0,0,0,0,0,0,0,0,0,0,0],"sum_hessian":[1.6115206E3,8.458176E2,7.65703E2,7.7283905E2,7.297855E1,5.0274426E2,2.700948E2,4.8876522E1,2.4102037E1,2.828261E1,4.7446164E2,6.3492737E1,2.0660204E2,9.637448E0,3.923907E1,1.9369368E1,8.913241E0,3.189024E2,1.5555923E2,2.2501116E1,4.0991623E1,2.0229008E1,1.8637303E2,3.7895732E0,5.847875E0,2.3980284E1,1.5258789E1,2.4324741E0,6.480767E0,3.158022E2,3.1002336E0,1.1602676E1,1.0898439E1,1.772983E1,2.3261793E1,1.313743E1,7.091577E0,4.4490417E1,1.4188261E2,4.462216E0,1.3856593E0,2.216212E1,1.8181626E0],"tree_param":{"num_deleted":"0","num_feature":"9","num_nodes":"43","size_leaf_vector":"1"}},{"base_weights":[1.6617738E-3,-1.1352489E0,1.2739611E0,-1.2418463E0,-1.0525E0,1.4628428E-2,5.1009152E-2,-1.258668E0,2.5304163E-1,-5.2463956E-2,-1.0066674E0,-1.2742611E0,-6.8540084E-1,6.6234976E-2,-3.810623E-2,2.236505E-1,-1.0190539E0,-1.1270436E0,-5.2360747E-2,3.144809E-2,-4.8001E-2,-3.652043E-2,6.126041E-2,-8.560894E-1,-1.0958827E0,-4.835945E-2,-4.961085E-3,-4.8210982E-2,-2.2313366E-2,-5.2448943E-2,-3.936545E-2],"categories":[],"categories_nodes":[],"categories_segments":[],"categories_sizes":[],"default_left":[0,0,0,0,0,0,0,0,0,0,0,0,0,0,0,0,0,0,0,0,0,0,0,0,0,0,0,0,0,0,0],"id":19,"left_children":[1,3,5,7,9,-1,-1,11,13,-1,15,17,19,-1,-1,21,23,25,-1,-1,-1,-1,-1,27,29,-1,-1,-1,-1,-1,-1],"loss_changes":[2.2554695E3,5.956421E0,3.8085938E-1,9.228149E0,4.2626343E0,0E0,0E0,2.2600708E0,9.6542015E0,0E0,6.381256E0,2.6489258E-1,9.6118965E0,0E0,0E0,8.600301E0,4.069092E0,5.7801056E0,0E0,0E0,0E0,0E0,0E0,1.3148567E1,5.1640625E0,0E0,0E0,0E0,0E0,0E0,0E0],"parents":[2147483647,0,0,1,1,2,2,3,3,4,4,7,7,8,8,10,10,11,11,12,12,15,15,16,16,17,17,23,23,24,24],"right_children":[2,4,6,8,10,-1,-1,12,14,-1,16,18,20,-1,-1,22,24,26,-1,-1,-1,-1,-1,28,30,-1,-1,-1,-1,-1,-1],"split_conditions":[1E0,1.8E1,3.8E-1,6.46E0,2.27E0,1.4628428E-2,5.1009152E-2,5.72E0,8.5E-2,-5.2463956E-2,2.29E0,1.3E-1,2.9E-1,6.6234976E-2,-3.810623E-2,4.1E-1,1.7E-1,1.25E-1,-5.2360747E-2,3.144809E-2,-4.8001E-2,-3.652043E-2,6.126041E-2,1.1E-1,3.39E0,-4.835945E-2,-4.961085E-3,-4.8210982E-2,-2.2313366E-2,-5.2448943E-2,-3.936545E-2],"split_indices":[6,3,2,2,2,0,0,2,8,0,2,8,1,0,0,8,8,8,0,0,0,0,0,8,2,0,0,0,0,0,0],"split_type":[0,0,0,0,0,0,0,0,0,0,0,0,0,0,0,0,0,0,0,0,0,0,0,0,0,0,0,0,0,0,0],"sum_hessian":[1.55727E3,8.224483E2,7.348217E2,3.5330838E2,4.6913992E2,1.4277579E0,7.33394E2,3.4953317E2,3.7751927E0,6.6362854E1,4.0277704E2,3.39087E2,1.0446162E1,1.5723655E0,2.2028272E0,3.844643E0,3.989324E2,7.115066E1,2.6793634E2,2.5698311E0,7.876331E0,2.2184727E0,1.6261704E0,1.3170671E2,2.672257E2,6.558709E1,5.5635676E0,5.9272175E1,7.243454E1,8.7628044E1,1.7959764E2],"tree_param":{"num_deleted":"0","num_feature":"9","num_nodes":"31","size_leaf_vector":"1"}},{"base_weights":[-6.761387E-4,-1.1068494E0,5.028377E-2,-1.1908727E0,-1.0374321E0,-4.9557082E-2,-1.0191761E0,-5.199349E-2,-9.90454E-1,-6.9886535E-1,-1.1955645E0,-1.2428009E-1,-1.0273857E0,4.133446E-2,-9.959153E-1,-9.7182727E-1,-5.2128118E-2,-4.5973238E-2,5.0520265E-1,-9.311411E-1,-1.1538664E0,4.108976E-2,-4.3719914E-2,-4.941331E-2,-2.1618776E-2,-4.9732387E-2,-3.7092366E-3,3.2615934E-2,-3.3665556E-2,-3.9948754E-2,-1.2804786E-3,-4.751243E-2,-1.9717714E-2],"categories":[],"categories_nodes":[],"categories_segments":[],"categories_sizes":[],"default_left":[0,0,0,0,0,0,0,0,0,0,0,0,0,0,0,0,0,0,0,0,0,0,0,0,0,0,0,0,0,0,0,0,0],"id":20,"left_children":[1,3,-1,5,7,-1,9,-1,11,13,15,17,19,21,23,25,-1,-1,27,29,31,-1,-1,-1,-1,-1,-1,-1,-1,-1,-1,-1,-1],"loss_changes":[2.1087964E3,3.4682007E0,0E0,1.691742E0,4.252075E0,0E0,3.9070663E0,0E0,1.2198822E1,7.124778E0,3.2806396E-3,1.1482488E1,3.4227905E0,1.2514659E1,1.8435726E0,4.9106293E0,0E0,0E0,5.349621E0,1.3030243E1,2.9022217E0,0E0,0E0,0E0,0E0,0E0,0E0,0E0,0E0,0E0,0E0,0E0,0E0],"parents":[2147483647,0,0,1,1,3,3,4,4,6,6,8,8,9,9,10,10,11,11,12,12,13,13,14,14,15,15,18,18,19,19,20,20],"right_children":[2,4,-1,6,8,-1,10,-1,12,14,16,18,20,22,24,26,-1,-1,28,30,32,-1,-1,-1,-1,-1,-1,-1,-1,-1,-1,-1,-1],"split_conditions":[1E0,1.8E1,5.028377E-2,7.3E-1,2.2E-1,-4.9557082E-2,4E0,-5.199349E-2,2.4E-1,1E0,8E-1,3.5E-1,5.7E-1,8E-1,6.6E-1,7.9E-1,-5.2128118E-2,-4.5973238E-2,3.5E1,5.4E-1,8.7E-1,4.108976E-2,-4.3719914E-2,-4.941331E-2,-2.1618776E-2,-4.9732387E-2,-3.7092366E-3,3.2615934E-2,-3.3665556E-2,-3.9948754E-2,-1.2804786E-3,-4.751243E-2,-1.9717714E-2],"split_indices":[6,3,0,0,0,0,3,0,0,5,0,1,1,0,1,0,0,0,3,1,0,0,0,0,0,0,0,0,0,0,0,0,0],"split_type":[0,0,0,0,0,0,0,0,0,0,0,0,0,0,0,0,0,0,0,0,0,0,0,0,0,0,0,0,0,0,0,0,0],"sum_hessian":[1.513689E3,8.054439E2,7.08245E2,3.570784E2,4.483655E2,2.7413712E2,8.294128E1,6.403227E1,3.8433322E2,3.1216347E1,5.172493E1,1.5895485E1,3.6843774E2,9.18634E0,2.2030006E1,2.005899E1,3.166594E1,5.733389E0,1.0162096E1,2.1397604E2,1.544617E2,4.965213E0,4.221128E0,1.3317134E1,8.7128725E0,1.5009465E1,5.049526E0,8.580481E0,1.5816152E0,1.98915E2,1.5061042E1,1.4615797E2,8.303726E0],"tree_param":{"num_deleted":"0","num_feature":"9","num_nodes":"33","size_leaf_vector":"1"}},{"base_weights":[1.2372398E-2,-1.0860198E0,1.2415653E0,-1.1883067E0,-1.004325E0,1.4545655E-2,4.971366E-2,-7.14601E-1,-1.218285E0,-9.608582E-1,-5.2191462E-2,-4.935015E-2,4.705631E-1,-5.0838836E-2,-9.5738965E-1,-9.899245E-1,8.575803E-1,-3.5582922E-2,1.0782331E0,4.3824723E-1,-1.0552129E0,-1.0239128E0,-4.1749552E-1,6.345781E-2,-3.310539E-2,6.201237E-2,2.0621032E-2,5.3584926E-2,-3.2232597E-2,-1.2168212E-2,-5.1104397E-2,-3.779507E-2,-5.174818E-2,-3.669131E-2,6.116216E-2],"categories":[],"categories_nodes":[],"categories_segments":[],"categories_sizes":[],"default_left":[0,0,0,0,0,0,0,0,0,0,0,0,0,0,0,0,0,0,0,0,0,0,0,0,0,0,0,0,0,0,0,0,0,0,0],"id":21,"left_children":[1,3,5,7,9,-1,-1,11,13,15,-1,-1,17,-1,19,21,23,-1,25,27,29,31,33,-1,-1,-1,-1,-1,-1,-1,-1,-1,-1,-1,-1],"loss_changes":[1.9933828E3,5.3220215E0,3.2861328E-1,3.9685059E0,4.4920044E0,0E0,0E0,1.4547522E1,3.1688538E0,2.1364105E1,0E0,0E0,7.272573E0,0E0,8.334438E0,7.0143127E0,9.47168E0,0E0,7.233796E-1,6.106927E0,8.659946E0,6.461914E0,2.3901464E1,0E0,0E0,0E0,0E0,0E0,0E0,0E0,0E0,0E0,0E0,0E0,0E0],"parents":[2147483647,0,0,1,1,2,2,3,3,4,4,7,7,8,8,9,9,12,12,14,14,15,15,16,16,18,18,19,19,20,20,21,21,22,22],"right_children":[2,4,6,8,10,-1,-1,12,14,16,-1,-1,18,-1,20,22,24,-1,26,28,30,32,34,-1,-1,-1,-1,-1,-1,-1,-1,-1,-1,-1,-1],"split_conditions":[1E0,1.8E1,3.8E-1,7.12E2,4.92E0,1.4545655E-2,4.971366E-2,4.7E0,8.313E3,4.87E0,-5.2191462E-2,-4.935015E-2,4.34E2,-5.0838836E-2,8.35E3,4.64E0,2E0,-3.5582922E-2,4.72E0,2.6E-1,3E0,7.7E-1,9.4E-1,6.345781E-2,-3.310539E-2,6.201237E-2,2.0621032E-2,5.3584926E-2,-3.2232597E-2,-1.2168212E-2,-5.1104397E-2,-3.779507E-2,-5.174818E-2,-3.669131E-2,6.116216E-2],"split_indices":[6,3,2,7,2,0,0,2,7,2,0,0,7,0,7,2,5,0,2,0,3,1,1,0,0,0,0,0,0,0,0,0,0,0,0],"split_type":[0,0,0,0,0,0,0,0,0,0,0,0,0,0,0,0,0,0,0,0,0,0,0,0,0,0,0,0,0,0,0,0,0,0,0],"sum_hessian":[1.4744326E3,7.7870636E2,6.957262E2,3.397597E2,4.3894666E2,1.4249591E0,6.943013E2,2.1700125E1,3.1805957E2,3.8713858E2,5.18081E1,1.5061529E1,6.6385956E0,2.6140015E2,5.6659424E1,3.8149628E2,5.6422863E0,1.9067794E0,4.731816E0,3.4833083E0,5.3176117E1,3.5936975E2,2.2126528E1,3.9796677E0,1.6626186E0,1.6187209E0,3.113095E0,1.9753033E0,1.508005E0,1.269032E1,4.0485794E1,2.8142725E2,7.79425E1,1.802681E1,4.0997176E0],"tree_param":{"num_deleted":"0","num_feature":"9","num_nodes":"35","size_leaf_vector":"1"}},{"base_weights":[3.68099E-3,-1.0625424E0,4.929412E-2,-1.1476091E0,-9.0181273E-1,-1.0967664E0,-4.988724E-2,5.839519E-1,-9.581842E-1,-1.1652807E0,-9.488958E-1,1.2522588E0,-3.865125E-2,-5.1245365E-2,-8.802647E-1,-1.0818497E0,-5.089746E-2,4.610736E-1,-1.0981404E0,4.0383533E-1,7.4291795E-2,3.6696893E-1,-9.040607E-1,-4.6941593E-2,1.1815392E-2,-4.307708E-2,6.6677555E-2,-4.823037E-2,-2.7030198E-2,-3.2802593E-2,5.556543E-2,-3.405732E-2,6.0559418E-2,-3.0826174E-2,-5.1532064E-2],"categories":[],"categories_nodes":[],"categories_segments":[],"categories_sizes":[],"default_left":[0,0,0,0,0,0,0,0,0,0,0,0,0,0,0,0,0,0,0,0,0,0,0,0,0,0,0,0,0,0,0,0,0,0,0],"id":22,"left_children":[1,3,-1,5,7,9,-1,11,13,15,17,19,-1,-1,21,23,-1,25,27,29,-1,31,33,-1,-1,-1,-1,-1,-1,-1,-1,-1,-1,-1,-1],"loss_changes":[1.8838486E3,9.49176E0,0E0,1.1622314E0,2.3267227E1,2.3301697E0,0E0,1.2121462E1,5.4549255E0,6.5615845E-1,2.4235947E1,3.251278E0,0E0,0E0,6.681305E0,1.7332916E1,0E0,2.3119823E1,3.834015E0,6.5930786E0,0E0,7.880655E0,9.783173E0,0E0,0E0,0E0,0E0,0E0,0E0,0E0,0E0,0E0,0E0,0E0,0E0],"parents":[2147483647,0,0,1,1,3,3,4,4,5,5,7,7,8,8,9,9,10,10,11,11,14,14,15,15,17,17,18,18,19,19,21,21,22,22],"right_children":[2,4,-1,6,8,10,-1,12,14,16,18,20,-1,-1,22,24,-1,26,28,30,-1,32,34,-1,-1,-1,-1,-1,-1,-1,-1,-1,-1,-1,-1],"split_conditions":[1E0,4.08E0,4.929412E-2,3E0,4.1E0,3.39E0,-4.988724E-2,3.4E-1,2E-1,2.77E0,3.43E0,7.6E-1,-3.865125E-2,-5.1245365E-2,2.1E-1,2.73E0,-5.089746E-2,2E0,7.902E3,3.3E-1,7.4291795E-2,6.717E3,7.226E3,-4.6941593E-2,1.1815392E-2,-4.307708E-2,6.6677555E-2,-4.823037E-2,-2.7030198E-2,-3.2802593E-2,5.556543E-2,-3.405732E-2,6.0559418E-2,-3.0826174E-2,-5.1532064E-2],"split_indices":[6,2,0,5,2,2,0,1,1,2,2,0,0,0,1,2,0,5,7,1,0,7,7,0,0,0,0,0,0,0,0,0,0,0,0],"split_type":[0,0,0,0,0,0,0,0,0,0,0,0,0,0,0,0,0,0,0,0,0,0,0,0,0,0,0,0,0,0,0,0,0,0,0],"sum_hessian":[1.4360101E3,7.6890283E2,6.6710724E2,4.9878137E2,2.7012146E2,3.381381E2,1.606433E2,9.531944E0,2.605895E2,2.2637094E2,1.1176714E2,6.7948785E0,2.7370658E0,4.765089E1,2.1293861E2,1.335138E2,9.285715E1,1.0498115E1,1.0126903E2,3.5226421E0,3.2722363E0,3.7166145E0,2.09222E2,1.25318535E2,8.195255E0,4.660669E0,5.837446E0,7.922799E1,2.2041035E1,1.645888E0,1.8767543E0,1.9271863E0,1.7894282E0,1.5753302E2,5.168898E1],"tree_param":{"num_deleted":"0","num_feature":"9","num_nodes":"35","size_leaf_vector":"1"}},{"base_weights":[1.0342581E-2,-1.0359544E0,4.837731E-2,-1.1512033E0,-9.4422346E-1,-9.5928854E-1,-4.93847E-2,8.3399095E-2,-9.7803503E-1,-1.1063627E0,-2.9685956E-1,5.614694E-1,-4.1014686E-2,-1.0124009E0,-6.0397667E-1,-5.020874E-2,-8.084626E-1,-7.906405E-1,1.0071883E0,-4.0281866E-2,5.9664596E-2,-5.08516E-2,-9.5158035E-1,5.017046E-1,-8.525412E-1,5.1815227E-2,-4.018285E-2,1.4226334E-2,-4.7660246E-2,-2.9073076E-2,6.2718436E-2,-2.6823806E-2,-4.149678E-2,5.1471584E-2,-3.5891365E-2,-4.9575314E-2,-1.009784E-2],"categories":[],"categories_nodes":[],"categories_segments":[],"categories_sizes":[],"default_left":[0,0,0,0,0,0,0,0,0,0,0,0,0,0,0,0,0,0,0,0,0,0,0,0,0,0,0,0,0,0,0,0,0,0,0,0,0],"id":23,"left_children":[1,3,-1,5,7,9,-1,11,13,15,17,19,-1,21,23,-1,25,27,29,-1,-1,-1,31,33,35,-1,-1,-1,-1,-1,-1,-1,-1,-1,-1,-1,-1],"loss_changes":[1.7757618E3,6.9039307E0,0E0,4.1052246E0,1.4898224E1,9.861458E0,0E0,8.264514E0,4.696686E0,2.7642822E0,1.391237E1,1.723167E1,0E0,4.7217712E0,1.0658035E1,0E0,1.4175856E1,7.470376E0,7.0072923E0,0E0,0E0,0E0,6.757721E0,9.350039E0,6.8282623E0,0E0,0E0,0E0,0E0,0E0,0E0,0E0,0E0,0E0,0E0,0E0,0E0],"parents":[2147483647,0,0,1,1,3,3,4,4,5,5,7,7,8,8,9,9,10,10,11,11,13,13,14,14,16,16,17,17,18,18,22,22,23,23,24,24],"right_children":[2,4,-1,6,8,10,-1,12,14,16,18,20,-1,22,24,-1,26,28,30,-1,-1,-1,32,34,36,-1,-1,-1,-1,-1,-1,-1,-1,-1,-1,-1,-1],"split_conditions":[1E0,3.39E0,4.837731E-2,3.4E-1,3.43E0,3E-1,-4.93847E-2,2.4E1,8.4E-1,6.7E-1,3.5E1,1.8E1,-4.1014686E-2,2E-1,1.4E-1,-5.020874E-2,6.8E-1,1.8E-1,2.37E0,-4.0281866E-2,5.9664596E-2,-5.08516E-2,3.9E-1,8.6E-1,6.7E-1,5.1815227E-2,-4.018285E-2,1.4226334E-2,-4.7660246E-2,-2.9073076E-2,6.2718436E-2,-2.6823806E-2,-4.149678E-2,5.1471584E-2,-3.5891365E-2,-4.9575314E-2,-1.009784E-2],"split_indices":[6,2,0,0,2,0,0,3,0,1,3,3,0,1,1,0,1,1,2,0,0,0,1,0,1,0,0,0,0,0,0,0,0,0,0,0,0],"split_type":[0,0,0,0,0,0,0,0,0,0,0,0,0,0,0,0,0,0,0,0,0,0,0,0,0,0,0,0,0,0,0,0,0,0,0,0,0],"sum_hessian":[1.4133971E3,7.548603E2,6.5853674E2,3.294263E2,4.2543402E2,1.0359083E2,2.2583546E2,1.3505307E1,4.119287E2,8.422157E1,1.9369253E1,9.781427E0,3.7238803E0,3.75705E2,3.6223717E1,5.4016735E1,3.020484E1,1.4334981E1,5.0342727E0,3.6104329E0,6.1709943E0,6.7686806E1,3.080182E2,6.461745E0,2.9761972E1,2.0975044E0,2.8107334E1,3.7433705E0,1.0591611E1,1.1578532E0,3.8764193E0,7.414031E1,2.3387787E2,4.1903834E0,2.271361E0,1.7448664E1,1.2313309E1],"tree_param":{"num_deleted":"0","num_feature":"9","num_nodes":"37","size_leaf_vector":"1"}},{"base_weights":[-3.129052E-3,-5.842956E-1,4.8193295E-2,-1.0607431E0,-3.297578E-1,-7.304282E-2,-1.0847398E0,1.1952367E0,-8.252093E-1,-4.0982164E-2,4.0595386E-2,-1.1442945E0,-9.25732E-1,9.997259E-3,4.805986E-2,-1.1303349E0,-3.0543065E-1,-1.1673261E0,-4.6614158E-1,-1.0821886E0,-4.3203768E-1,-1.1647428E0,-8.167108E-1,1.1777381E0,-9.648243E-1,-5.004025E-2,-4.2292293E-2,4.6380132E-2,-4.468411E-2,-3.020563E-2,-5.0292805E-2,-2.6762389E-2,7.5366184E-2,-2.9351866E-2,-4.7375474E-2,-4.8322152E-2,1.1619709E-3,4.7790956E-2,1.1115739E-2,-1.9109908E-2,-4.3119643E-2],"categories":[],"categories_nodes":[],"categories_segments":[],"categories_sizes":[],"default_left":[0,0,0,0,0,0,0,0,0,0,0,0,0,0,0,0,0,0,0,0,0,0,0,0,0,0,0,0,0,0,0,0,0,0,0,0,0,0,0,0,0],"id":24,"left_children":[1,3,-1,5,7,9,11,13,15,-1,-1,17,19,-1,-1,21,23,25,27,29,31,33,35,37,39,-1,-1,-1,-1,-1,-1,-1,-1,-1,-1,-1,-1,-1,-1,-1,-1],"loss_changes":[9.6754034E2,1.1249786E2,0E0,7.589813E0,4.6033148E2,1.0094444E1,1.9313965E0,5.843048E-1,7.2524506E1,0E0,0E0,2.9783936E0,6.583946E0,0E0,0E0,2.1688843E0,1.6868773E2,6.7926025E-1,1.0896287E1,2.9830093E0,1.4235104E1,1.316803E0,1.060417E1,4.831543E-1,6.0523987E0,0E0,0E0,0E0,0E0,0E0,0E0,0E0,0E0,0E0,0E0,0E0,0E0,0E0,0E0,0E0,0E0],"parents":[2147483647,0,0,1,1,3,3,4,4,5,5,6,6,7,7,8,8,11,11,12,12,15,15,16,16,17,17,18,18,19,19,20,20,21,21,22,22,23,23,24,24],"right_children":[2,4,-1,6,8,10,12,14,16,-1,-1,18,20,-1,-1,22,24,26,28,30,32,34,36,38,40,-1,-1,-1,-1,-1,-1,-1,-1,-1,-1,-1,-1,-1,-1,-1,-1],"split_conditions":[4.5333335E-1,2.2166666E-1,4.8193295E-2,1.1E-1,4.5E-1,5.5E-2,2.8E1,8.5E-1,3.9E-1,-4.0982164E-2,4.0595386E-2,5.72E0,4.48E0,9.997259E-3,4.805986E-2,9E-1,5.8E-1,5.6E-1,5.8E0,2.73E0,9.4E-1,4E-2,7E-1,9.5E-1,7E0,-5.004025E-2,-4.2292293E-2,4.6380132E-2,-4.468411E-2,-3.020563E-2,-5.0292805E-2,-2.6762389E-2,7.5366184E-2,-2.9351866E-2,-4.7375474E-2,-4.8322152E-2,1.1619709E-3,4.7790956E-2,1.1115739E-2,-1.9109908E-2,-4.3119643E-2],"split_indices":[8,8,0,0,0,8,3,2,8,0,0,2,2,0,0,1,0,1,2,2,1,1,0,1,3,0,0,0,0,0,0,0,0,0,0,0,0,0,0,0,0],"split_type":[0,0,0,0,0,0,0,0,0,0,0,0,0,0,0,0,0,0,0,0,0,0,0,0,0,0,0,0,0,0,0,0,0,0,0,0,0,0,0,0,0],"sum_hessian":[1.3762073E3,9.295193E2,4.4668793E2,3.2256674E2,6.069526E2,7.7469616E0,3.1481976E2,1.4848988E2,4.584627E2,4.163648E0,3.5833135E0,2.2452856E2,9.029121E1,1.2460593E0,1.4724382E2,2.8814084E2,1.7032185E2,2.1645587E2,8.072684E0,6.765776E1,2.2633444E1,2.572084E2,3.093245E1,5.217622E1,1.1814563E2,1.1705396E2,9.940192E1,2.084885E0,5.987799E0,2.5447632E1,4.2210133E1,2.1177439E1,1.4560049E0,1.2885419E1,2.4432297E2,2.0854477E1,1.0077973E1,5.0885105E1,1.2911166E0,2.3259027E1,9.4886604E1],"tree_param":{"num_deleted":"0","num_feature":"9","num_nodes":"41","size_leaf_vector":"1"}},{"base_weights":[-1.0164484E-2,-1.0108687E0,4.7457542E-2,-1.0922182E0,-9.448563E-1,-1.1521363E0,-7.8167325E-1,-4.945633E-2,-8.907023E-1,-6.745195E-1,-1.1924665E0,6.998357E-1,-8.805746E-1,-2.8719451E-2,-9.299152E-1,-9.052169E-1,3.531066E-2,-8.126116E-1,-4.9837854E-2,-2.6680691E-2,5.7070468E-2,-4.881727E-2,-1.1848033E-1,-4.267208E-2,5.2682567E-1,-8.299481E-1,-1.0656703E0,-4.7412302E-2,3.348896E-3,-4.7106758E-2,-1.2617036E-2,2.3738267E-2,-4.398838E-2,3.47707E-2,-3.3094082E-2,-3.6086798E-2,1.7067988E-3,-4.5914464E-2,-5.117598E-3],"categories":[],"categories_nodes":[],"categories_segments":[],"categories_sizes":[],"default_left":[0,0,0,0,0,0,0,0,0,0,0,0,0,0,0,0,0,0,0,0,0,0,0,0,0,0,0,0,0,0,0,0,0,0,0,0,0,0,0],"id":25,"left_children":[1,3,-1,5,7,9,11,-1,13,15,17,19,21,23,25,27,-1,29,-1,-1,-1,-1,31,-1,33,35,37,-1,-1,-1,-1,-1,-1,-1,-1,-1,-1,-1,-1],"loss_changes":[1.5879854E3,2.8461914E0,0E0,4.999695E0,5.310272E0,4.2752075E0,8.586662E0,0E0,1.1670044E1,9.00301E0,3.9009094E0,4.887636E0,1.3177372E1,9.840669E0,3.6070251E0,5.7451267E0,0E0,5.568161E0,0E0,0E0,0E0,0E0,1.2508088E1,0E0,5.8896713E0,1.2335632E1,1.039949E1,0E0,0E0,0E0,0E0,0E0,0E0,0E0,0E0,0E0,0E0,0E0,0E0],"parents":[2147483647,0,0,1,1,3,3,4,4,5,5,6,6,8,8,9,9,10,10,11,11,12,12,13,13,14,14,15,15,17,17,22,22,24,24,25,25,26,26],"right_children":[2,4,-1,6,8,10,12,-1,14,16,18,20,22,24,26,28,-1,30,-1,-1,-1,-1,32,-1,34,36,38,-1,-1,-1,-1,-1,-1,-1,-1,-1,-1,-1,-1],"split_conditions":[1E0,1.8E1,4.7457542E-2,8.313E3,1.1E-1,7.12E2,8.35E3,-4.945633E-2,1.2E-1,6.83E2,1E-1,3E0,3.6166668E-1,3.5E-1,5.7E-1,3.95E-1,3.531066E-2,6.6E-1,-4.9837854E-2,-2.6680691E-2,5.7070468E-2,-4.881727E-2,7E0,-4.267208E-2,6.989E3,5.4E-1,4.2666668E-1,-4.7412302E-2,3.348896E-3,-4.7106758E-2,-1.2617036E-2,2.3738267E-2,-4.398838E-2,3.47707E-2,-3.3094082E-2,-3.6086798E-2,1.7067988E-3,-4.5914464E-2,-5.117598E-3],"split_indices":[6,3,0,7,8,7,7,0,8,7,8,5,8,1,1,8,0,1,0,0,0,0,3,0,7,1,8,0,0,0,0,0,0,0,0,0,0,0,0],"split_type":[0,0,0,0,0,0,0,0,0,0,0,0,0,0,0,0,0,0,0,0,0,0,0,0,0,0,0,0,0,0,0,0,0,0,0,0,0,0,0],"sum_hessian":[1.3241426E3,7.211822E2,6.029604E2,3.160974E2,4.0508475E2,2.627006E2,5.339684E1,6.0035664E1,3.450491E2,2.1835474E1,2.408651E2,2.96131E0,5.043553E1,1.5089167E1,3.2995993E2,1.9382812E1,2.4526615E0,3.1724985E1,2.0914012E2,1.0567313E0,1.9045784E0,3.4464573E1,1.5970956E1,4.9393315E0,1.0149835E1,1.9412445E2,1.3583546E2,1.4950045E1,4.432768E0,1.7504025E1,1.422096E1,9.484562E0,6.4863935E0,8.387025E0,1.76281E0,1.7925467E2,1.4869793E1,1.24683014E2,1.1152454E1],"tree_param":{"num_deleted":"0","num_feature":"9","num_nodes":"39","size_leaf_vector":"1"}},{"base_weights":[-2.89117E-2,-1.0392756E0,1.1678238E0,-1.172043E0,-9.356945E-1,1.070062E-2,1.1693255E0,-4.9233813E-2,-1.0095925E0,3.5224572E-1,-9.742213E-1,4.4553075E-2,4.8551984E-2,-1.0710084E0,-5.2207667E-2,8.1233126E-1,-3.8130186E-2,-1.0476373E0,-8.3521944E-1,-6.673774E-1,-4.90588E-2,4.7161613E-2,-3.8314205E-2,1.2379432E0,-3.1254537E-2,-1.1494801E0,-6.8583816E-1,-3.921216E-1,-1.0432583E0,-4.702019E-2,7.014594E-3,-3.0856842E-2,7.4632935E-2,-4.698337E-2,-2.9458439E-2,1.1969884E-2,-3.7686612E-2,-3.252981E-2,1.7884923E-2,-3.2578122E-2,-4.9628112E-2],"categories":[],"categories_nodes":[],"categories_segments":[],"categories_sizes":[],"default_left":[0,0,0,0,0,0,0,0,0,0,0,0,0,0,0,0,0,0,0,0,0,0,0,0,0,0,0,0,0,0,0,0,0,0,0,0,0,0,0,0,0],"id":26,"left_children":[1,3,5,7,9,-1,11,-1,13,15,17,-1,-1,19,21,23,-1,25,27,29,-1,-1,-1,31,-1,33,35,37,39,-1,-1,-1,-1,-1,-1,-1,-1,-1,-1,-1,-1],"loss_changes":[1.5512415E3,8.469543E0,4.8120117E-1,1.6316833E0,1.997879E1,0E0,9.448242E-2,0E0,4.97332E0,8.118969E0,3.048706E0,0E0,0E0,4.22184E0,8.051078E0,7.466321E0,0E0,8.337433E0,1.22953415E1,1.0709993E1,0E0,0E0,0E0,1.1467964E1,0E0,1.1235199E0,1.4644899E1,1.6492445E1,3.1992111E0,0E0,0E0,0E0,0E0,0E0,0E0,0E0,0E0,0E0,0E0,0E0,0E0],"parents":[2147483647,0,0,1,1,2,2,3,3,4,4,6,6,8,8,9,9,10,10,13,13,14,14,15,15,17,17,18,18,19,19,23,23,25,25,26,26,27,27,28,28],"right_children":[2,4,6,8,10,-1,12,-1,14,16,18,-1,-1,20,22,24,-1,26,28,30,-1,-1,-1,32,-1,34,36,38,40,-1,-1,-1,-1,-1,-1,-1,-1,-1,-1,-1,-1],"split_conditions":[1E0,3.39E0,3.8E-1,2.8E1,3.43E0,1.070062E-2,2E0,-4.9233813E-2,8.6E-1,5.7E-1,4.64E0,4.4553075E-2,4.8551984E-2,2.57E3,8.7E-1,2.4E1,-3.8130186E-2,7.902E3,4.92E0,1.768E3,-4.90588E-2,4.7161613E-2,-3.8314205E-2,1.8E1,-3.1254537E-2,8.5E-1,7E0,7.8E-1,4.8E-1,-4.702019E-2,7.014594E-3,-3.0856842E-2,7.4632935E-2,-4.698337E-2,-2.9458439E-2,1.1969884E-2,-3.7686612E-2,-3.252981E-2,1.7884923E-2,-3.2578122E-2,-4.9628112E-2],"split_indices":[6,2,2,3,2,0,6,0,0,1,2,0,0,7,0,3,0,7,2,7,0,0,0,3,0,0,3,1,0,0,0,0,0,0,0,0,0,0,0,0,0],"split_type":[0,0,0,0,0,0,0,0,0,0,0,0,0,0,0,0,0,0,0,0,0,0,0,0,0,0,0,0,0,0,0,0,0,0,0,0,0,0,0,0,0],"sum_hessian":[1.2809275E3,6.94617E2,5.863104E2,2.9989938E2,3.9471765E2,1.2746067E0,5.850358E2,2.153663E2,8.4533066E1,1.1227936E1,3.8348972E2,2.71847E2,3.1318887E2,7.932567E1,5.2074013E0,8.581426E0,2.6465108E0,2.466702E2,1.3681952E2,2.3529076E1,5.5796593E1,2.0790331E0,3.1283681E0,6.9488826E0,1.6325431E0,1.9078813E2,5.588207E1,4.4635685E1,9.218383E1,1.4432322E1,9.096754E0,1.5999749E0,5.3489075E0,1.7811784E2,1.2670288E1,1.1503972E1,4.4378098E1,2.9742308E1,1.4893378E1,4.5074722E1,4.7109104E1],"tree_param":{"num_deleted":"0","num_feature":"9","num_nodes":"41","size_leaf_vector":"1"}},{"base_weights":[-2.2055646E-2,-5.460317E-1,1.170242E0,-9.702383E-1,-3.1387666E-1,7.0201313E-1,4.7297806E-2,-1.0008212E0,-1.6149673E-1,1.1554283E0,-7.6933193E-1,9.13132E-1,-2.225161E-2,-9.126218E-1,-4.8370693E-2,-4.1299384E-2,4.8809406E-1,1.1622815E0,7.841715E-3,-9.999993E-1,-3.5109168E-1,6.3274507E-3,3.9282832E-2,-1.1529738E0,-6.9233483E-1,1.0881276E0,-3.387938E-2,8.166042E-3,4.6768248E-2,-8.7357426E-1,-1.1683167E0,1.0915946E0,-9.6408963E-1,-4.8570268E-2,-3.7167598E-2,3.4722175E-2,-2.9235398E-2,1.904388E-2,6.609261E-2,-3.8883045E-2,1.1639808E-2,-4.8795428E-2,-3.3296473E-2,4.5041543E-2,2.0247819E-2,-4.8831977E-2,-2.5228614E-2],"categories":[],"categories_nodes":[],"categories_segments":[],"categories_sizes":[],"default_left":[0,0,0,0,0,0,0,0,0,0,0,0,0,0,0,0,0,0,0,0,0,0,0,0,0,0,0,0,0,0,0,0,0,0,0,0,0,0,0,0,0,0,0,0,0,0,0],"id":27,"left_children":[1,3,5,7,9,11,-1,13,15,17,19,21,-1,23,-1,-1,25,27,-1,29,31,-1,-1,33,35,37,-1,-1,-1,39,41,43,45,-1,-1,-1,-1,-1,-1,-1,-1,-1,-1,-1,-1,-1,-1],"loss_changes":[7.910562E2,8.632196E1,1.3787842E0,7.521698E0,3.8231888E2,3.770341E0,0E0,4.395874E0,7.5827627E0,6.6152954E-1,4.1683136E1,4.1167068E-1,0E0,1.054657E1,0E0,0E0,7.2066603E0,6.5112305E-1,0E0,4.9436646E0,1.3938525E2,0E0,0E0,2.5637817E-1,7.5102386E0,1.2335305E0,0E0,0E0,0E0,1.9098434E1,1.0157471E0,3.7997055E-1,8.670212E0,0E0,0E0,0E0,0E0,0E0,0E0,0E0,0E0,0E0,0E0,0E0,0E0,0E0,0E0],"parents":[2147483647,0,0,1,1,2,2,3,3,4,4,5,5,7,7,8,8,9,9,10,10,11,11,13,13,16,16,17,17,19,19,20,20,23,23,24,24,25,25,29,29,30,30,31,31,32,32],"right_children":[2,4,6,8,10,12,-1,14,16,18,20,22,-1,24,-1,-1,26,28,-1,30,32,-1,-1,34,36,38,-1,-1,-1,40,42,44,46,-1,-1,-1,-1,-1,-1,-1,-1,-1,-1,-1,-1,-1,-1],"split_conditions":[4.5333335E-1,2.2166666E-1,4.6833333E-1,5.72E0,4.5E-1,7.3E-1,4.7297806E-2,3.4E-1,3E0,9.84E3,3.9E-1,7E-2,-2.225161E-2,1.1E-1,-4.8370693E-2,-4.1299384E-2,4E0,8.5E-1,7.841715E-3,5.7E-1,5.8E-1,6.3274507E-3,3.9282832E-2,7.6E-1,1.1E-1,8.5E-1,-3.387938E-2,8.166042E-3,4.6768248E-2,5.4E-1,8.564E3,8.8E-1,3.88E0,-4.8570268E-2,-3.7167598E-2,3.4722175E-2,-2.9235398E-2,1.904388E-2,6.609261E-2,-3.8883045E-2,1.1639808E-2,-4.8795428E-2,-3.3296473E-2,4.5041543E-2,2.0247819E-2,-4.8831977E-2,-2.5228614E-2],"split_indices":[8,8,8,2,0,1,0,0,5,7,8,1,0,8,0,0,5,2,0,1,0,0,0,1,0,1,0,0,0,1,7,1,2,0,0,0,0,0,0,0,0,0,0,0,0,0,0],"split_type":[0,0,0,0,0,0,0,0,0,0,0,0,0,0,0,0,0,0,0,0,0,0,0,0,0,0,0,0,0,0,0,0,0,0,0,0,0,0,0,0,0,0,0,0,0,0,0],"sum_hessian":[1.2642031E3,8.786202E2,3.85583E2,3.0964337E2,5.689768E2,1.1280648E1,3.7430237E2,2.981319E2,1.1511474E1,1.3427309E2,4.347037E2,9.894807E0,1.3858418E0,2.1326976E2,8.486215E1,4.66589E0,6.8455834E0,1.3311075E2,1.1623412E0,2.7928293E2,1.5542078E2,1.1036271E0,8.79118E0,9.99652E1,1.1330455E2,4.850542E0,1.9950414E0,1.1738476E0,1.3193689E2,1.6302393E2,1.1625899E2,4.6113125E1,1.0930765E2,7.5000374E1,2.4964825E1,2.2129679E0,1.1109158E2,3.2110546E0,1.6394874E0,1.5046274E2,1.2561189E1,9.850466E1,1.7754328E1,4.2678448E1,3.4346774E0,6.0250626E1,4.9057022E1],"tree_param":{"num_deleted":"0","num_feature":"9","num_nodes":"47","size_leaf_vector":"1"}},{"base_weights":[-9.892061E-3,-9.9806094E-1,4.6266794E-2,-1.0952544E0,-8.8027585E-1,-4.830991E-2,-1.0058446E0,5.28608E-1,-8.975469E-1,-8.15166E-1,-1.0860592E0,6.080292E-2,-3.0249204E-2,-9.4948E-1,-3.9323872E-1,-9.088452E-1,6.143337E-2,-1.1222551E0,-5.032977E-1,-1.1157573E0,-8.2103205E-1,2.3460999E-1,-8.3784837E-1,-4.2717203E-2,-1.3545178E-2,-4.8402715E-2,-3.881483E-2,3.215561E-2,-4.293066E-2,-3.6352528E-3,-4.873724E-2,-3.9764956E-2,-2.5019912E-2,3.394245E-2,-4.0302597E-2,-4.6253484E-2,-1.3920446E-2],"categories":[],"categories_nodes":[],"categories_segments":[],"categories_sizes":[],"default_left":[0,0,0,0,0,0,0,0,0,0,0,0,0,0,0,0,0,0,0,0,0,0,0,0,0,0,0,0,0,0,0,0,0,0,0,0,0],"id":28,"left_children":[1,3,-1,5,7,-1,9,11,13,15,17,-1,-1,19,21,23,-1,25,27,29,31,33,35,-1,-1,-1,-1,-1,-1,-1,-1,-1,-1,-1,-1,-1,-1],"loss_changes":[1.4170917E3,6.654907E0,0E0,2.41156E0,7.9200287E0,0E0,2.2787323E0,6.6716785E0,7.553238E0,1.5769661E1,2.4431458E0,0E0,0E0,4.929352E0,8.56093E0,5.388809E0,0E0,6.0562134E-1,8.426801E0,1.2147675E1,4.7323456E0,1.092436E1,2.3683596E0,0E0,0E0,0E0,0E0,0E0,0E0,0E0,0E0,0E0,0E0,0E0,0E0,0E0,0E0],"parents":[2147483647,0,0,1,1,3,3,4,4,6,6,7,7,8,8,9,9,10,10,13,13,14,14,15,15,17,17,18,18,19,19,20,20,21,21,22,22],"right_children":[2,4,-1,6,8,-1,10,12,14,16,18,-1,-1,20,22,24,-1,26,28,30,32,34,36,-1,-1,-1,-1,-1,-1,-1,-1,-1,-1,-1,-1,-1,-1],"split_conditions":[1E0,3.75E0,4.6266794E-2,1.8E1,3.76E0,-4.830991E-2,3.03E3,3E0,8.4E-1,3E3,8.6E-1,6.080292E-2,-3.0249204E-2,1.8E1,8.6E-1,2.531E3,6.143337E-2,7.269E3,2.29E0,7.12E2,4.7E-1,4.43E0,4.87E0,-4.2717203E-2,-1.3545178E-2,-4.8402715E-2,-3.881483E-2,3.215561E-2,-4.293066E-2,-3.6352528E-3,-4.873724E-2,-3.9764956E-2,-2.5019912E-2,3.394245E-2,-4.0302597E-2,-4.6253484E-2,-1.3920446E-2],"split_indices":[6,2,0,3,2,0,7,3,0,7,0,0,0,3,0,7,0,7,2,7,0,2,2,0,0,0,0,0,0,0,0,0,0,0,0,0,0],"split_type":[0,0,0,0,0,0,0,0,0,0,0,0,0,0,0,0,0,0,0,0,0,0,0,0,0,0,0,0,0,0,0,0,0,0,0,0,0],"sum_hessian":[1.2273018E3,6.6453406E2,5.627677E2,3.5954623E2,3.049878E2,1.5368068E2,2.0586557E2,3.3349347E0,3.0165286E2,6.4264435E1,1.4160112E2,1.779032E0,1.5559026E0,2.726889E2,2.8963942E1,6.2391766E1,1.8726732E0,1.3244885E2,9.152268E0,1.1549408E2,1.5719484E2,1.2203409E1,1.6760532E1,4.8099575E1,1.4292189E1,7.951165E1,5.2937214E1,2.6543257E0,6.497942E0,1.0688443E1,1.0480563E2,8.121614E1,7.59787E1,8.378947E0,3.8244624E0,9.332168E0,7.4283657E0],"tree_param":{"num_deleted":"0","num_feature":"9","num_nodes":"37","size_leaf_vector":"1"}},{"base_weights":[6.0513774E-3,-9.3797725E-1,1.1367369E0,-9.606359E-1,-6.918953E-1,1.0788907E0,4.739431E-2,-8.3893347E-1,-1.0206482E0,-4.3389708E-1,-4.692583E-2,7.477015E-1,4.3720894E-2,-1.061264E0,-6.4290094E-1,-1.1160408E0,-9.0490806E-1,-7.450581E-1,1.7417066E-1,-2.3764376E-2,9.4045055E-1,-4.761683E-2,-8.069395E-1,-4.6555102E-2,-5.417185E-1,-7.466886E-1,-4.5552388E-2,-7.1683574E-1,-1.0388016E0,1.0493577E-1,-4.6758797E-2,8.657265E-1,-4.141523E-2,4.2949215E-2,3.870371E-1,4.584794E-2,-3.9370786E-2,3.2713678E-2,-2.5747474E-2,-4.5041036E-2,2.4550755E-2,-4.717599E-2,-1.3600409E-2,-5.393746E-4,-4.3606304E-2,5.5379804E-2,-1.433682E-2,6.1359774E-2,-3.5447206E-2,-1.121168E-2,3.0611597E-2],"categories":[],"categories_nodes":[],"categories_segments":[],"categories_sizes":[],"default_left":[0,0,0,0,0,0,0,0,0,0,0,0,0,0,0,0,0,0,0,0,0,0,0,0,0,0,0,0,0,0,0,0,0,0,0,0,0,0,0,0,0,0,0,0,0,0,0,0,0,0,0],"id":29,"left_children":[1,3,5,7,9,11,-1,13,15,17,-1,19,-1,21,23,25,27,29,31,-1,33,-1,35,-1,37,39,-1,41,43,45,-1,47,-1,-1,49,-1,-1,-1,-1,-1,-1,-1,-1,-1,-1,-1,-1,-1,-1,-1,-1],"loss_changes":[1.2812925E3,2.9829712E0,2.4206543E-1,3.500061E0,6.783293E0,3.9593506E-1,0E0,8.147934E0,3.349701E0,7.6643124E0,0E0,4.1209035E0,0E0,2.107254E0,5.178837E0,9.339905E-1,3.880951E0,9.682542E0,1.2849765E1,0E0,5.0126934E-1,0E0,1.3098122E1,0E0,1.3579115E1,8.547896E0,0E0,1.3476517E1,5.518074E0,6.2747784E0,0E0,1.2641365E1,0E0,0E0,1.2181752E0,0E0,0E0,0E0,0E0,0E0,0E0,0E0,0E0,0E0,0E0,0E0,0E0,0E0,0E0,0E0,0E0],"parents":[2147483647,0,0,1,1,2,2,3,3,4,4,5,5,7,7,8,8,9,9,11,11,13,13,14,14,15,15,16,16,17,17,18,18,20,20,22,22,24,24,25,25,27,27,28,28,29,29,31,31,34,34],"right_children":[2,4,6,8,10,12,-1,14,16,18,-1,20,-1,22,24,26,28,30,32,-1,34,-1,36,-1,38,40,-1,42,44,46,-1,48,-1,-1,50,-1,-1,-1,-1,-1,-1,-1,-1,-1,-1,-1,-1,-1,-1,-1,-1],"split_conditions":[1E0,8.4E-1,2E0,3.4E-1,8.8E-1,8E-2,4.739431E-2,2.2E-1,6.2E-1,6.7E-1,-4.692583E-2,1E0,4.3720894E-2,6.7E-1,1.7E-1,7.12E2,7.1E-1,1.4E-1,8.2E-1,-2.3764376E-2,6.2E-1,-4.761683E-2,6.8E-1,-4.6555102E-2,2.1E-1,6.83E2,-4.5552388E-2,2E0,4.57E2,7.84E2,-4.6758797E-2,2E0,-4.141523E-2,4.2949215E-2,8.5E-1,4.584794E-2,-3.9370786E-2,3.2713678E-2,-2.5747474E-2,-4.5041036E-2,2.4550755E-2,-4.717599E-2,-1.3600409E-2,-5.393746E-4,-4.3606304E-2,5.5379804E-2,-1.433682E-2,6.1359774E-2,-3.5447206E-2,-1.121168E-2,3.0611597E-2],"split_indices":[6,0,6,0,0,1,0,0,0,1,0,4,0,1,1,7,0,1,1,0,0,0,1,0,1,7,0,5,7,7,0,5,0,0,0,0,0,0,0,0,0,0,0,0,0,0,0,0,0,0,0],"split_type":[0,0,0,0,0,0,0,0,0,0,0,0,0,0,0,0,0,0,0,0,0,0,0,0,0,0,0,0,0,0,0,0,0,0,0,0,0,0,0,0,0,0,0,0,0,0,0,0,0,0,0],"sum_hessian":[1.1983881E3,6.531949E2,5.451932E2,5.954625E2,5.773241E1,2.5821414E2,2.8697903E2,2.0160193E2,3.938606E2,3.8821705E1,1.8910706E1,1.2773086E1,2.4544106E2,9.239654E1,1.0920538E2,2.1117137E2,1.8268921E2,2.5531443E1,1.3290263E1,1.3428212E0,1.14302635E1,5.88363E1,3.3560238E1,1.6052128E1,9.315326E1,1.4224178E1,1.9694719E2,7.86159E1,1.0407331E2,8.746376E0,1.6785067E1,8.636589E0,4.653674E0,8.454058E0,2.9762058E0,2.3386297E0,3.122161E1,6.009338E0,8.714392E1,1.1257547E1,2.966632E0,3.4336746E1,4.4279152E1,5.0243926E0,9.904891E1,1.7967303E0,6.949646E0,6.3418603E0,2.2947283E0,1.1703714E0,1.8058344E0],"tree_param":{"num_deleted":"0","num_feature":"9","num_nodes":"51","size_leaf_vector":"1"}},{"base_weights":[-5.145475E-3,-9.7257125E-1,1.1299905E0,-1.0820093E0,-8.869102E-1,8.045532E-3,1.131622E0,-9.090168E-1,-1.1588916E0,3.2025513E-1,-9.2805445E-1,4.311974E-2,4.70441E-2,-5.6155443E-1,-4.746983E-2,-4.7571898E-2,-7.972409E-1,8.2318276E-1,-3.769671E-2,-1.0193604E0,-7.533492E-1,-7.068197E-1,9.5077895E-2,-4.4351775E-2,-3.5832137E-2,1.3893145E0,-3.3107266E-2,-4.7087178E-1,-1.0607365E0,8.84441E-1,-7.967187E-1,-3.877511E-2,1.4072748E-2,4.0548738E-2,-3.646675E-2,-2.8646372E-2,8.008058E-2,-4.528293E-2,2.5292909E-2,-4.4383764E-2,-1.7402554E-2,-2.5538456E-2,6.996661E-2,-4.32814E-3,-3.4596805E-2],"categories":[],"categories_nodes":[],"categories_segments":[],"categories_sizes":[],"default_left":[0,0,0,0,0,0,0,0,0,0,0,0,0,0,0,0,0,0,0,0,0,0,0,0,0,0,0,0,0,0,0,0,0,0,0,0,0,0,0,0,0,0,0,0,0],"id":30,"left_children":[1,3,5,7,9,-1,11,13,15,17,19,-1,-1,21,-1,-1,23,25,-1,27,29,31,-1,-1,33,35,-1,37,39,41,43,-1,-1,-1,-1,-1,-1,-1,-1,-1,-1,-1,-1,-1,-1],"loss_changes":[1.2984414E3,5.024597E0,5.9680176E-1,2.613739E0,1.8357208E1,0E0,2.709961E-2,7.9678955E0,1.1109314E0,8.858611E0,4.8452454E0,0E0,0E0,1.945697E1,0E0,0E0,4.1248627E0,1.0156123E1,0E0,4.6810455E0,9.556015E0,1.1585545E1,0E0,0E0,6.56005E0,1.1172102E1,0E0,1.3707417E1,5.981415E0,5.9742937E0,5.6317444E0,0E0,0E0,0E0,0E0,0E0,0E0,0E0,0E0,0E0,0E0,0E0,0E0,0E0,0E0],"parents":[2147483647,0,0,1,1,2,2,3,3,4,4,6,6,7,7,8,8,9,9,10,10,13,13,16,16,17,17,19,19,20,20,21,21,24,24,25,25,27,27,28,28,29,29,30,30],"right_children":[2,4,6,8,10,-1,12,14,16,18,20,-1,-1,22,-1,-1,24,26,-1,28,30,32,-1,-1,34,36,-1,38,40,42,44,-1,-1,-1,-1,-1,-1,-1,-1,-1,-1,-1,-1,-1,-1],"split_conditions":[1E0,3.39E0,3.8E-1,3.4E-1,3.43E0,8.045532E-3,2E0,4.331E3,8.6E-1,5.7E-1,6.566E3,4.311974E-2,4.70441E-2,4.288E3,-4.746983E-2,-4.7571898E-2,2.8E1,2.4E1,-3.769671E-2,4.57E2,6.591E3,3.5E1,9.5077895E-2,-4.4351775E-2,8.7E-1,1.8E1,-3.3107266E-2,3.96E2,8.5E-1,7.2E-1,3E0,-3.877511E-2,1.4072748E-2,4.0548738E-2,-3.646675E-2,-2.8646372E-2,8.008058E-2,-4.528293E-2,2.5292909E-2,-4.4383764E-2,-1.7402554E-2,-2.5538456E-2,6.996661E-2,-4.32814E-3,-3.4596805E-2],"split_indices":[6,2,2,0,2,0,6,7,0,1,7,0,0,7,0,0,3,3,0,7,7,3,0,0,0,3,0,7,0,1,3,0,0,0,0,0,0,0,0,0,0,0,0,0,0],"split_type":[0,0,0,0,0,0,0,0,0,0,0,0,0,0,0,0,0,0,0,0,0,0,0,0,0,0,0,0,0,0,0,0,0,0,0,0,0,0,0,0,0,0,0,0,0],"sum_hessian":[1.1803785E3,6.373429E2,5.430357E2,2.7472757E2,3.626153E2,1.1700363E0,5.4186566E2,8.847453E1,1.8625302E2,1.17282E1,3.5088712E2,2.5711148E2,2.8475418E2,4.064552E1,4.7829014E1,1.6969716E2,1.6555864E1,8.636365E0,3.091835E0,2.2727303E2,1.2361408E2,3.945454E1,1.1909784E0,1.1424815E1,5.1310496E0,6.5489593E0,2.087406E0,1.6810497E1,2.1046252E2,2.6886282E0,1.2092545E2,3.1681402E1,7.7731395E0,2.2624435E0,2.8686063E0,1.4381306E0,5.110829E0,1.04944515E1,6.3160453E0,1.9450089E2,1.596164E1,1.0685024E0,1.6201258E0,1.11319E1,1.0979356E2],"tree_param":{"num_deleted":"0","num_feature":"9","num_nodes":"45","size_leaf_vector":"1"}},{"base_weights":[6.0739946E-3,-9.5685226E-1,4.503969E-2,-4.7139637E-2,-9.183948E-1,1.4521733E-1,-9.275096E-1,-3.4909673E-2,6.2433366E-2,-7.7944E-1,-9.9278176E-1,-2.3399298E-1,-9.159E-1,-1.1496321E0,-8.5919523E-1,-2.5799738E-2,3.6304966E-2,-3.8311053E-2,2.8022809E-2,-1.4146045E-2,-4.744576E-2,4.265264E-2,-3.5491742E-2],"categories":[],"categories_nodes":[],"categories_segments":[],"categories_sizes":[],"default_left":[0,0,0,0,0,0,0,0,0,0,0,0,0,0,0,0,0,0,0,0,0,0,0],"id":31,"left_children":[1,3,-1,-1,5,7,9,-1,-1,11,13,15,17,19,21,-1,-1,-1,-1,-1,-1,-1,-1],"loss_changes":[1.2436382E3,4.203003E0,0E0,0E0,5.3012085E0,9.133479E0,4.3344116E0,0E0,0E0,1.216803E1,6.6218567E0,1.683588E1,9.65535E0,4.3492584E0,1.1771744E1,0E0,0E0,0E0,0E0,0E0,0E0,0E0,0E0],"parents":[2147483647,0,0,1,1,4,4,5,5,6,6,9,9,10,10,11,11,12,12,13,13,14,14],"right_children":[2,4,-1,-1,6,8,10,-1,-1,12,14,16,18,20,22,-1,-1,-1,-1,-1,-1,-1,-1],"split_conditions":[1E0,2.27E0,4.503969E-2,-4.7139637E-2,2.29E0,8.2E-1,3.4E-1,-3.4909673E-2,6.2433366E-2,2.94E0,3.75E0,3E-1,6.46E0,4E-2,3.76E0,-2.5799738E-2,3.6304966E-2,-3.8311053E-2,2.8022809E-2,-1.4146045E-2,-4.744576E-2,4.265264E-2,-3.5491742E-2],"split_indices":[6,2,0,0,2,0,0,0,0,2,2,0,2,1,2,0,0,0,0,0,0,0,0],"split_type":[0,0,0,0,0,0,0,0,0,0,0,0,0,0,0,0,0,0,0,0,0,0,0],"sum_hessian":[1.1512275E3,6.190783E2,5.3214923E2,8.715295E1,5.3192535E2,4.392822E0,5.2753253E2,2.7783916E0,1.6144301E0,1.6535855E2,3.6217395E2,3.3634033E1,1.3172452E2,1.630837E2,1.9909026E2,2.5050476E1,8.583556E0,1.2879544E2,2.9290867E0,7.621276E0,1.5546242E2,2.3320355E0,1.9675822E2],"tree_param":{"num_deleted":"0","num_feature":"9","num_nodes":"23","size_leaf_vector":"1"}},{"base_weights":[-1.5527872E-2,-9.4044465E-1,1.1102515E0,-1.0350741E0,-7.3513067E-1,7.0460294E-3,1.1120391E0,-9.830294E-1,-4.546674E-2,-6.106334E-1,-1.0638604E0,4.2091936E-2,4.6396207E-2,-7.650337E-1,-1.0226567E0,-7.1688014E-1,8.789074E-1,-5.7286876E-1,-4.7428202E-2,-8.89822E-1,1.1065418E0,-4.695896E-2,-9.590311E-1,-9.952379E-1,-4.4826108E-1,7.3840894E-2,6.9710575E-2,-4.3691684E-2,6.94013E-2,-4.6000365E-2,-1.0999046E-2,-2.4387704E-2,8.621669E-2,5.1043108E-2,-3.9841857E-2,3.1554054E-3,-4.7189403E-2,2.6830385E-2,-2.9057883E-2,9.1329105E-2,-3.867265E-2],"categories":[],"categories_nodes":[],"categories_segments":[],"categories_sizes":[],"default_left":[0,0,0,0,0,0,0,0,0,0,0,0,0,0,0,0,0,0,0,0,0,0,0,0,0,0,0,0,0,0,0,0,0,0,0,0,0,0,0,0,0],"id":32,"left_children":[1,3,5,7,9,-1,11,13,-1,15,17,-1,-1,19,21,23,25,27,-1,29,31,-1,33,35,37,39,-1,-1,-1,-1,-1,-1,-1,-1,-1,-1,-1,-1,-1,-1,-1],"loss_changes":[1.1397126E3,1.091333E1,6.2835693E-1,1.0444031E0,7.249977E0,0E0,1.8798828E-1,1.6170654E0,0E0,2.3157875E1,2.4121246E0,0E0,0E0,1.1889914E1,1.1083221E0,9.530075E0,6.7749476E0,1.653063E1,0E0,6.7753105E0,7.3704977E0,0E0,1.5238876E1,1.2915489E1,2.219015E1,1.6422184E1,0E0,0E0,0E0,0E0,0E0,0E0,0E0,0E0,0E0,0E0,0E0,0E0,0E0,0E0,0E0],"parents":[2147483647,0,0,1,1,2,2,3,3,4,4,6,6,7,7,9,9,10,10,13,13,14,14,15,15,16,16,17,17,19,19,20,20,22,22,23,23,24,24,25,25],"right_children":[2,4,6,8,10,-1,12,14,-1,16,18,-1,-1,20,22,24,26,28,-1,30,32,-1,34,36,38,40,-1,-1,-1,-1,-1,-1,-1,-1,-1,-1,-1,-1,-1,-1,-1],"split_conditions":[1E0,4.19E0,3.8E-1,3E0,7.226E3,7.0460294E-3,2E0,1.8E-1,-4.546674E-2,6.955E3,2.1E-1,4.2091936E-2,4.6396207E-2,1.7E-1,3E3,5E-1,8.8E-1,2E-1,-4.7428202E-2,2E0,7.106E3,-4.695896E-2,3.03E3,7.12E2,5.7E-1,4.3E0,6.9710575E-2,-4.3691684E-2,6.94013E-2,-4.6000365E-2,-1.0999046E-2,-2.4387704E-2,8.621669E-2,5.1043108E-2,-3.9841857E-2,3.1554054E-3,-4.7189403E-2,2.6830385E-2,-2.9057883E-2,9.1329105E-2,-3.867265E-2],"split_indices":[6,2,2,5,7,0,6,1,0,7,1,0,0,1,7,1,1,1,0,5,7,0,7,7,1,2,0,0,0,0,0,0,0,0,0,0,0,0,0,0,0],"split_type":[0,0,0,0,0,0,0,0,0,0,0,0,0,0,0,0,0,0,0,0,0,0,0,0,0,0,0,0,0,0,0,0,0,0,0,0,0,0,0,0,0],"sum_hessian":[1.0925568E3,5.998759E2,4.9268088E2,4.078541E2,1.9202184E2,1.1311301E0,4.9154974E2,2.7675452E2,1.3109958E2,1.4134781E2,5.0674026E1,2.2887746E2,2.6267227E2,4.569346E1,2.3106105E2,1.3242113E2,8.926683E0,1.1208657E1,3.946537E1,4.3329033E1,2.3644254E0,6.323091E1,1.6783014E2,6.370329E1,6.8717834E1,5.182428E0,3.7442553E0,9.579403E0,1.6292536E0,2.9833744E1,1.3495288E1,1.055716E0,1.3087095E0,2.1887965E0,1.6564134E2,9.421979E0,5.4281307E1,1.3400858E1,5.531698E1,1.2770782E0,3.9053497E0],"tree_param":{"num_deleted":"0","num_feature":"9","num_nodes":"41","size_leaf_vector":"1"}},{"base_weights":[6.3941306E-3,-9.053094E-1,4.426224E-2,-9.9502313E-1,-7.3829454E-1,-1.1313255E0,-9.1259056E-1,1.0052799E0,-8.118582E-1,-7.2045225E-1,-4.695767E-2,-2.654936E-1,-9.536945E-1,1.6816745E0,-3.258567E-2,-4.684704E-2,-7.0570666E-1,-4.2717203E-2,-6.950201E-2,-4.251503E-2,9.100639E-1,-6.6508275E-1,-1.0904278E0,3.3243492E-2,7.906616E-2,1.3196121E0,-7.7755654E-1,6.6711165E-2,-3.821802E-2,-3.5313603E-2,9.347981E-2,-1.4163776E-2,-4.601515E-2,-2.8452612E-2,-4.504208E-2,1.1698929E-1,-3.339774E-2,-3.318455E-2,-8.312808E-3],"categories":[],"categories_nodes":[],"categories_segments":[],"categories_sizes":[],"default_left":[0,0,0,0,0,0,0,0,0,0,0,0,0,0,0,0,0,0,0,0,0,0,0,0,0,0,0,0,0,0,0,0,0,0,0,0,0,0,0],"id":33,"left_children":[1,3,-1,5,7,9,11,13,15,17,-1,19,21,23,-1,-1,25,-1,27,-1,29,31,33,-1,-1,35,37,-1,-1,-1,-1,-1,-1,-1,-1,-1,-1,-1,-1],"loss_changes":[1.0803672E3,8.090851E0,0E0,3.2405396E0,2.771363E1,1.5907135E0,6.187683E0,1.2370421E1,6.869385E0,3.4690933E0,0E0,1.5823502E1,8.244873E0,7.374573E-2,0E0,0E0,2.4057457E1,0E0,1.1630964E1,0E0,1.9828875E1,1.1007488E1,1.2609558E0,0E0,0E0,2.2476692E1,4.37957E0,0E0,0E0,0E0,0E0,0E0,0E0,0E0,0E0,0E0,0E0,0E0,0E0],"parents":[2147483647,0,0,1,1,3,3,4,4,5,5,6,6,7,7,8,8,9,9,11,11,12,12,13,13,16,16,18,18,20,20,21,21,22,22,25,25,26,26],"right_children":[2,4,-1,6,8,10,12,14,16,18,-1,20,22,24,-1,-1,26,-1,28,-1,30,32,34,-1,-1,36,38,-1,-1,-1,-1,-1,-1,-1,-1,-1,-1,-1,-1],"split_conditions":[1E0,4.08E0,4.426224E-2,3.8E-1,4.1E0,4E-2,4.1E-1,3.4E-1,2.4E-1,3.5E-1,-4.695767E-2,2.8E1,1.7E-1,2.1E-1,-3.258567E-2,-4.684704E-2,2.6E-1,-4.2717203E-2,3.55E-1,-4.251503E-2,2.75E-1,7.7E-1,3E0,3.3243492E-2,7.906616E-2,4.3E0,9.5E-1,6.6711165E-2,-3.821802E-2,-3.5313603E-2,9.347981E-2,-1.4163776E-2,-4.601515E-2,-2.8452612E-2,-4.504208E-2,1.1698929E-1,-3.339774E-2,-3.318455E-2,-8.312808E-3],"split_indices":[6,2,0,1,2,1,1,1,1,8,0,3,8,1,0,0,1,0,8,0,8,1,3,0,0,2,1,0,0,0,0,0,0,0,0,0,0,0,0],"split_type":[0,0,0,0,0,0,0,0,0,0,0,0,0,0,0,0,0,0,0,0,0,0,0,0,0,0,0,0,0,0,0,0,0,0,0,0,0,0,0],"sum_hessian":[1.0751139E3,5.880086E2,4.871053E2,3.793039E2,2.0870471E2,1.3814943E2,2.4115446E2,7.9363055E0,2.0076842E2,1.4665171E1,1.2348427E2,1.4848853E1,2.2630562E2,5.8412876E0,2.0950177E0,4.34977E1,1.572707E2,9.14369E0,5.521481E0,8.904663E0,5.9441905E0,7.463428E1,1.5167134E2,2.4870899E0,3.3541977E0,4.7931876E0,1.5247752E2,1.5667396E0,3.9547412E0,2.8032625E0,3.140928E0,4.6540043E1,2.8094233E1,1.48289585E1,1.3684238E2,2.541978E0,2.25121E0,1.3929399E2,1.3183534E1],"tree_param":{"num_deleted":"0","num_feature":"9","num_nodes":"39","size_leaf_vector":"1"}},{"base_weights":[5.856341E-3,-8.8912106E-1,1.0927849E0,-9.598245E-1,-7.6907897E-1,1.0288836E0,4.5818973E-2,-1.0508974E0,-8.269639E-1,-4.5774555E-1,-8.915349E-1,7.608918E-1,4.1752055E-2,-6.160025E-1,-1.1012772E0,1.5027461E-2,-8.598988E-1,1.2778741E-1,-7.220977E-1,-5.718761E-1,-1.0019755E0,-8.020495E-3,9.234848E-1,3.8698085E-2,-4.4069156E-2,-4.6526637E-2,-9.366484E-1,6.2878385E-2,-3.7204206E-2,-1.0690787E0,-6.6073805E-1,-6.0300297E-1,1.2717109E0,6.25665E-1,-8.367036E-1,-4.5140054E-2,8.24972E-2,-8.3487135E-1,-4.6676524E-2,9.760561E-1,1.4033612E-2,-4.024083E-2,4.656597E-2,-2.8657297E-2,-4.5703888E-2,-4.6487115E-2,-3.1052848E-2,4.837894E-3,-3.3905033E-2,-4.313309E-2,5.218256E-2,6.923299E-3,1.01642236E-1,-2.534112E-2,5.579044E-2,-1.1380851E-2,-4.541334E-2,-2.3356825E-2,4.3572836E-2,-3.721108E-2,3.5547223E-2,4.1769378E-2,1.4993294E-2],"categories":[],"categories_nodes":[],"categories_segments":[],"categories_sizes":[],"default_left":[0,0,0,0,0,0,0,0,0,0,0,0,0,0,0,0,0,0,0,0,0,0,0,0,0,0,0,0,0,0,0,0,0,0,0,0,0,0,0,0,0,0,0,0,0,0,0,0,0,0,0,0,0,0,0,0,0,0,0,0,0,0,0],"id":34,"left_children":[1,3,5,7,9,11,-1,13,15,17,19,21,-1,23,25,27,29,31,33,35,37,-1,39,41,-1,-1,43,-1,-1,45,47,49,51,53,55,-1,57,59,-1,61,-1,-1,-1,-1,-1,-1,-1,-1,-1,-1,-1,-1,-1,-1,-1,-1,-1,-1,-1,-1,-1,-1,-1],"loss_changes":[1.00822723E3,4.0861816E0,3.9727783E-1,3.4105835E0,7.8163757E0,9.0652466E-2,0E0,3.8384247E0,4.131996E0,9.836621E0,4.8556747E0,2.5862932E0,0E0,7.5703163E0,7.7993774E-1,1.1136088E1,5.249504E0,1.784645E1,7.246031E0,1.5323927E1,2.1390915E0,0E0,5.8462143E-2,1.4161374E1,0E0,0E0,1.6878662E0,0E0,0E0,9.541397E-1,1.1183754E1,1.3325497E1,1.1115219E1,4.740924E0,6.3618393E0,0E0,1.4157316E1,1.0631176E1,0E0,8.555317E-2,0E0,0E0,0E0,0E0,0E0,0E0,0E0,0E0,0E0,0E0,0E0,0E0,0E0,0E0,0E0,0E0,0E0,0E0,0E0,0E0,0E0,0E0,0E0],"parents":[2147483647,0,0,1,1,2,2,3,3,4,4,5,5,7,7,8,8,9,9,10,10,11,11,13,13,14,14,15,15,16,16,17,17,18,18,19,19,20,20,22,22,23,23,26,26,29,29,30,30,31,31,32,32,33,33,34,34,36,36,37,37,39,39],"right_children":[2,4,6,8,10,12,-1,14,16,18,20,22,-1,24,26,28,30,32,34,36,38,-1,40,42,-1,-1,44,-1,-1,46,48,50,52,54,56,-1,58,60,-1,62,-1,-1,-1,-1,-1,-1,-1,-1,-1,-1,-1,-1,-1,-1,-1,-1,-1,-1,-1,-1,-1,-1,-1],"split_conditions":[1E0,6.325E3,2E0,2.8666666E-1,7.306E3,8E-2,4.5818973E-2,7.12E2,2.95E-1,1.55E-1,2.4E-1,7E0,4.1752055E-2,3.6E-1,2.8E1,1.802E3,5E-1,7.7E-1,6.366E3,8.799E3,8.605E3,-8.020495E-3,5.466667E-1,2.8E-1,-4.4069156E-2,-4.6526637E-2,3.494E3,6.2878385E-2,-3.7204206E-2,4.558E3,5.7E-1,1.5E-1,2.8E1,3.8E-1,3.7E-1,-4.5140054E-2,3.5E-1,8.564E3,-4.6676524E-2,6.089E3,1.4033612E-2,-4.024083E-2,4.656597E-2,-2.8657297E-2,-4.5703888E-2,-4.6487115E-2,-3.1052848E-2,4.837894E-3,-3.3905033E-2,-4.313309E-2,5.218256E-2,6.923299E-3,1.01642236E-1,-2.534112E-2,5.579044E-2,-1.1380851E-2,-4.541334E-2,-2.3356825E-2,4.3572836E-2,-3.721108E-2,3.5547223E-2,4.1769378E-2,1.4993294E-2],"split_indices":[6,7,6,8,7,1,0,7,8,8,1,3,0,1,3,7,1,1,7,7,7,0,8,1,0,0,7,0,0,7,1,8,3,8,1,0,8,7,0,7,0,0,0,0,0,0,0,0,0,0,0,0,0,0,0,0,0,0,0,0,0,0,0],"split_type":[0,0,0,0,0,0,0,0,0,0,0,0,0,0,0,0,0,0,0,0,0,0,0,0,0,0,0,0,0,0,0,0,0,0,0,0,0,0,0,0,0,0,0,0,0,0,0,0,0,0,0,0,0,0,0,0,0,0,0,0,0,0,0],"sum_hessian":[1.0344441E3,5.674157E2,4.6702838E2,3.526897E2,2.1472603E2,2.2033517E2,2.466932E2,2.051526E2,1.4753711E2,6.1953304E1,1.5277272E2,1.4360541E1,2.0597462E2,2.2671556E1,1.8248103E2,5.574211E0,1.4196289E2,1.9430925E1,4.252238E1,4.081528E1,1.1195744E2,2.0436037E0,1.2316937E1,1.0048168E1,1.2623389E1,1.2821567E2,5.426537E1,1.8550847E0,3.7191265E0,6.710946E1,7.485344E1,1.2145007E1,7.2859187E0,2.9830062E0,3.953937E1,2.1663363E1,1.9151917E1,5.862454E1,5.3332905E1,1.0636032E1,1.6809056E0,5.2660174E0,4.7821503E0,2.8388716E1,2.5876654E1,4.8664116E1,1.8445341E1,1.4511173E1,6.0342266E1,1.0070394E1,2.0746136E0,4.5147347E0,2.771184E0,1.1979486E0,1.7850578E0,1.4563488E1,2.4975885E1,1.1776845E1,7.375072E0,5.5985752E1,2.6387842E0,8.890955E0,1.7450767E0],"tree_param":{"num_deleted":"0","num_feature":"9","num_nodes":"63","size_leaf_vector":"1"}},{"base_weights":[1.6575314E-2,-4.7983247E-1,1.1063727E0,-8.569418E-1,-2.7085018E-1,7.27948E-1,4.4705544E-2,-8.7776256E-1,6.000459E-1,1.0725507E0,-6.854144E-1,9.2232394E-1,3.4459922E-2,-7.721593E-1,-4.5699075E-2,-3.0908663E-2,7.2946236E-2,1.0805008E0,1.4844125E-2,-8.029029E-1,-2.1823567E-1,1.3104188E-2,4.0129445E-2,2.831456E-2,-3.1900574E-2,-8.111517E-1,3.6903854E-2,1.5221793E-2,4.3545146E-2,-2.16972E-1,-8.903451E-1,8.400361E-1,-5.952723E-1,-4.5867562E-2,-2.832038E-2,-2.6138213E-2,3.81412E-2,-4.330074E-2,-2.9892048E-2,3.6768086E-2,3.230864E-3,-1.3309232E-2,-4.4663213E-2],"categories":[],"categories_nodes":[],"categories_segments":[],"categories_sizes":[],"default_left":[0,0,0,0,0,0,0,0,0,0,0,0,0,0,0,0,0,0,0,0,0,0,0,0,0,0,0,0,0,0,0,0,0,0,0,0,0,0,0,0,0,0,0],"id":35,"left_children":[1,3,5,7,9,11,-1,13,15,17,19,21,23,25,-1,-1,-1,27,-1,29,31,-1,-1,-1,-1,33,-1,-1,-1,35,37,39,41,-1,-1,-1,-1,-1,-1,-1,-1,-1,-1],"loss_changes":[5.5728546E2,5.554692E1,5.6082153E-1,8.168457E0,2.5517514E2,1.6111183E0,0E0,6.0719604E0,8.368399E0,2.0201874E-1,1.9021164E1,1.2755585E-1,2.64143E0,1.2703377E1,0E0,0E0,0E0,1.9100189E-1,0E0,1.4105759E1,2.9089987E1,0E0,0E0,0E0,0E0,5.3266754E0,0E0,0E0,0E0,1.981435E1,5.857773E0,1.0820484E0,6.9392223E0,0E0,0E0,0E0,0E0,0E0,0E0,0E0,0E0,0E0,0E0],"parents":[2147483647,0,0,1,1,2,2,3,3,4,4,5,5,7,7,8,8,9,9,10,10,11,11,12,12,13,13,17,17,19,19,20,20,25,25,29,29,30,30,31,31,32,32],"right_children":[2,4,6,8,10,12,-1,14,16,18,20,22,24,26,-1,-1,-1,28,-1,30,32,-1,-1,-1,-1,34,-1,-1,-1,36,38,40,42,-1,-1,-1,-1,-1,-1,-1,-1,-1,-1],"split_conditions":[4.5333335E-1,2.2166666E-1,4.6833333E-1,6.46E0,4.5E-1,7.2E-1,4.4705544E-2,3.4E-1,8.6E-1,9.578E3,4.2E-1,3E0,2.042E3,1.7E-1,-4.5699075E-2,-3.0908663E-2,7.2946236E-2,1.07E0,1.4844125E-2,4.9E-1,5.8E-1,1.3104188E-2,4.0129445E-2,2.831456E-2,-3.1900574E-2,2.71E0,3.6903854E-2,1.5221793E-2,4.3545146E-2,2.45E-1,3.39E0,8.7E-1,8.8E-1,-4.5867562E-2,-2.832038E-2,-2.6138213E-2,3.81412E-2,-4.330074E-2,-2.9892048E-2,3.6768086E-2,3.230864E-3,-1.3309232E-2,-4.4663213E-2],"split_indices":[8,8,8,2,0,1,0,0,1,7,8,3,7,8,0,0,0,2,0,0,0,0,0,0,0,2,0,0,0,8,2,1,0,0,0,0,0,0,0,0,0,0,0],"split_type":[0,0,0,0,0,0,0,0,0,0,0,0,0,0,0,0,0,0,0,0,0,0,0,0,0,0,0,0,0,0,0,0,0,0,0,0,0,0,0,0,0,0,0],"sum_hessian":[1.0281519E3,7.0677313E2,3.2137875E2,2.5090805E2,4.5586508E2,1.1187932E1,3.1019083E2,2.4776497E2,3.1430755E0,1.0712805E2,3.4873706E2,8.480872E0,2.7070591E0,1.7990994E2,6.7855034E1,1.6549213E0,1.4881543E0,1.05393135E2,1.7349169E0,2.7808438E2,7.065268E1,1.620297E0,6.8605757E0,1.5785491E0,1.12851E0,1.7637337E2,3.5365677E0,1.7586615E0,1.0363447E2,3.6563297E1,2.4152107E2,1.8236952E1,5.2415726E1,3.9090015E1,1.3728336E2,2.6953861E1,9.609436E0,1.00259254E2,1.4126181E2,1.632423E1,1.9127218E0,3.5949215E1,1.646651E1],"tree_param":{"num_deleted":"0","num_feature":"9","num_nodes":"43","size_leaf_vector":"1"}},{"base_weights":[1.8272646E-3,-4.8505446E-1,1.0976844E0,-2.3536846E-1,-8.065931E-1,8.260757E-1,4.4503454E-2,-7.4605113E-1,1.084399E0,-9.345415E-1,-2.4494934E-1,1.7028366E-1,9.464881E-1,-8.147518E-1,-2.669428E-1,4.3703984E-2,1.4704999E-2,-4.3481965E-2,-7.572758E-1,9.2400664E-1,-6.051068E-1,3.130042E-2,-3.4049433E-2,3.975053E-2,1.2115819E-2,-8.524514E-1,1.1499467E-1,8.2710713E-1,-6.419392E-1,5.582845E-1,-8.6457E-1,9.7706604E-1,1.3002854E-2,-3.2598802E-1,-4.3968067E-2,-2.8039642E-2,-4.574551E-2,-3.8077634E-2,3.83757E-2,4.023968E-2,8.2206394E-4,-4.3713387E-2,4.1804523E-3,-2.6004564E-2,8.1235915E-2,-2.6493898E-2,-4.6944633E-2,4.1611366E-2,1.5832871E-2,3.454248E-2,-1.8882768E-2],"categories":[],"categories_nodes":[],"categories_segments":[],"categories_sizes":[],"default_left":[0,0,0,0,0,0,0,0,0,0,0,0,0,0,0,0,0,0,0,0,0,0,0,0,0,0,0,0,0,0,0,0,0,0,0,0,0,0,0,0,0,0,0,0,0,0,0,0,0,0,0],"id":36,"left_children":[1,3,5,7,9,11,-1,13,15,17,19,21,23,25,27,-1,-1,-1,29,31,33,-1,-1,-1,-1,35,37,39,41,43,45,47,-1,49,-1,-1,-1,-1,-1,-1,-1,-1,-1,-1,-1,-1,-1,-1,-1,-1,-1],"loss_changes":[5.2466174E2,5.4470917E1,3.0526733E-1,2.6006E2,2.1127579E1,1.3878603E0,0E0,8.930649E0,2.3152924E-1,5.7108307E0,2.4344572E1,3.331873E0,1.965828E-1,8.601013E0,1.5441065E1,0E0,0E0,0E0,1.6725082E1,1.1783886E-1,5.6813393E0,0E0,0E0,0E0,0E0,9.485611E0,1.0223715E1,1.380867E0,9.413224E0,1.7842695E1,5.896332E0,3.2439232E-2,0E0,5.517663E0,0E0,0E0,0E0,0E0,0E0,0E0,0E0,0E0,0E0,0E0,0E0,0E0,0E0,0E0,0E0,0E0,0E0],"parents":[2147483647,0,0,1,1,2,2,3,3,4,4,5,5,7,7,8,8,9,9,10,10,11,11,12,12,13,13,14,14,18,18,19,19,20,20,25,25,26,26,27,27,28,28,29,29,30,30,31,31,33,33],"right_children":[2,4,6,8,10,12,-1,14,16,18,20,22,24,26,28,-1,-1,-1,30,32,34,-1,-1,-1,-1,36,38,40,42,44,46,48,-1,50,-1,-1,-1,-1,-1,-1,-1,-1,-1,-1,-1,-1,-1,-1,-1,-1,-1],"split_conditions":[4.5333335E-1,4.9E-1,3E0,2.45E-1,4.2333335E-1,4.9166667E-1,4.4503454E-2,2.2166666E-1,9.84E3,3.75E0,5.8E-1,3.31E0,8.2E-1,5.72E0,1.6E-1,4.3703984E-2,1.4704999E-2,-4.3481965E-2,3.8E0,1.8E1,8.8E-1,3.130042E-2,-3.4049433E-2,3.975053E-2,1.2115819E-2,3.2E-1,3E0,6.955E3,4.28E0,7.873E3,4.74E0,8.865E3,1.3002854E-2,7.84E2,-4.3968067E-2,-2.8039642E-2,-4.574551E-2,-3.8077634E-2,3.83757E-2,4.023968E-2,8.2206394E-4,-4.3713387E-2,4.1804523E-3,-2.6004564E-2,8.1235915E-2,-2.6493898E-2,-4.6944633E-2,4.1611366E-2,1.5832871E-2,3.454248E-2,-1.8882768E-2],"split_indices":[8,0,3,8,8,8,0,8,7,2,0,2,0,2,0,0,0,0,2,3,0,0,0,0,0,0,5,7,2,7,2,7,0,7,0,0,0,0,0,0,0,0,0,0,0,0,0,0,0,0,0],"split_type":[0,0,0,0,0,0,0,0,0,0,0,0,0,0,0,0,0,0,0,0,0,0,0,0,0,0,0,0,0,0,0,0,0,0,0,0,0,0,0,0,0,0,0,0,0,0,0,0,0,0,0],"sum_hessian":[9.813383E2,6.7984515E2,3.0149313E2,3.836554E2,2.961898E2,1.8616575E1,2.8287656E2,2.7693167E2,1.06723724E2,2.4069336E2,5.549641E1,3.2624953E0,1.535408E1,2.4158902E2,3.5342655E1,1.0499811E2,1.7256222E0,1.2662304E2,1.1407033E2,1.270252E1,4.279389E1,2.1862092E0,1.0762862E0,1.3796563E1,1.557517E0,2.3225464E2,9.33438E0,8.713993E0,2.6628664E1,8.284822E0,1.0578551E2,1.1088828E1,1.6136926E0,2.8406544E1,1.4387348E1,1.5502559E2,7.722905E1,4.06752E0,5.26686E0,6.929776E0,1.7842164E0,1.6311573E1,1.0317091E1,4.8574343E0,3.4273882E0,6.5844E1,3.99415E1,9.288793E0,1.8000352E0,2.5697074E0,2.5836836E1],"tree_param":{"num_deleted":"0","num_feature":"9","num_nodes":"51","size_leaf_vector":"1"}},{"base_weights":[-3.2186456E-2,-8.727718E-1,1.0605192E0,-1.0395925E0,-7.481519E-1,9.8004055E-1,4.5045435E-2,-1.0654529E0,6.337764E-1,-5.311169E-1,-8.6909634E-1,6.342844E-1,9.9765706E-1,-1.11487E0,-7.9375935E-1,-2.7735176E-2,6.276313E-2,-6.2396234E-1,1.265983E0,-9.5711833E-1,-4.913607E-1,-3.0607931E-2,8.543341E-1,4.1184243E-2,7.9848206E-1,-8.4718674E-1,-4.599924E-2,1.8353228E-1,-4.4991415E-2,-4.867559E-1,-4.4703864E-2,-2.6931988E-2,7.991726E-2,-4.5835774E-2,-8.0307066E-1,5.76689E-1,-4.5193177E-2,9.141476E-1,1.2101831E-2,3.8928556E-1,9.823281E-1,-4.392861E-2,7.637054E-3,-3.722916E-2,4.0091805E-2,-3.844138E-2,-6.6998294E-3,-1.1590121E-2,-4.1659106E-2,8.686604E-2,-1.7442316E-2,3.9808992E-2,1.3100607E-2,3.250668E-2,-6.0061373E-2,2.0774264E-2,4.2720325E-2],"categories":[],"categories_nodes":[],"categories_segments":[],"categories_sizes":[],"default_left":[0,0,0,0,0,0,0,0,0,0,0,0,0,0,0,0,0,0,0,0,0,0,0,0,0,0,0,0,0,0,0,0,0,0,0,0,0,0,0,0,0,0,0,0,0,0,0,0,0,0,0,0,0,0,0,0,0],"id":37,"left_children":[1,3,5,7,9,11,-1,13,15,17,19,21,23,25,27,-1,-1,29,31,33,35,-1,37,-1,39,41,-1,43,-1,45,-1,-1,-1,-1,47,49,-1,51,-1,53,55,-1,-1,-1,-1,-1,-1,-1,-1,-1,-1,-1,-1,-1,-1,-1,-1],"loss_changes":[8.634165E2,1.026709E1,1.0547485E0,1.0394974E1,7.614563E0,5.323181E-1,0E0,2.0898438E0,6.1093936E0,1.9589314E1,6.04657E0,4.3550696E0,3.249817E-1,7.644501E-1,1.2360409E1,0E0,0E0,6.7576447E0,9.670606E0,3.6717224E0,2.7312237E1,0E0,8.1805706E-2,0E0,1.8273201E0,6.7895126E0,0E0,1.0389338E1,0E0,1.2880627E1,0E0,0E0,0E0,0E0,1.07481575E1,2.564402E1,0E0,1.1646891E-1,0E0,9.835849E0,2.2323799E-1,0E0,0E0,0E0,0E0,0E0,0E0,0E0,0E0,0E0,0E0,0E0,0E0,0E0,0E0,0E0,0E0],"parents":[2147483647,0,0,1,1,2,2,3,3,4,4,5,5,7,7,8,8,9,9,10,10,11,11,12,12,13,13,14,14,17,17,18,18,19,19,20,20,22,22,24,24,25,25,27,27,29,29,34,34,35,35,37,37,39,39,40,40],"right_children":[2,4,6,8,10,12,-1,14,16,18,20,22,24,26,28,-1,-1,30,32,34,36,-1,38,-1,40,42,-1,44,-1,46,-1,-1,-1,-1,48,50,-1,52,-1,54,56,-1,-1,-1,-1,-1,-1,-1,-1,-1,-1,-1,-1,-1,-1,-1,-1],"split_conditions":[1E0,1.8E1,2E0,6.46E0,3.517E3,8E-2,4.5045435E-2,8.313E3,8.3E-1,3.454E3,4.64E0,7E0,8.4E-1,1E-1,8.605E3,-2.7735176E-2,6.276313E-2,7.7E-1,3.77E0,6.325E3,4.92E0,-3.0607931E-2,5.466667E-1,4.1184243E-2,3.64E3,9.5E-2,-4.599924E-2,6.3E-1,-4.4991415E-2,3.5E-1,-4.4703864E-2,-2.6931988E-2,7.991726E-2,-4.5835774E-2,7.306E3,1.45E-1,-4.5193177E-2,4.52E0,1.2101831E-2,2.23E3,2.65E-1,-4.392861E-2,7.637054E-3,-3.722916E-2,4.0091805E-2,-3.844138E-2,-6.6998294E-3,-1.1590121E-2,-4.1659106E-2,8.686604E-2,-1.7442316E-2,3.9808992E-2,1.3100607E-2,3.250668E-2,-6.0061373E-2,2.0774264E-2,4.2720325E-2],"split_indices":[6,3,6,2,7,1,0,7,1,7,2,3,1,8,7,0,0,1,2,7,2,0,8,0,7,8,0,1,0,1,0,0,0,0,7,8,0,2,0,7,8,0,0,0,0,0,0,0,0,0,0,0,0,0,0,0,0],"split_type":[0,0,0,0,0,0,0,0,0,0,0,0,0,0,0,0,0,0,0,0,0,0,0,0,0,0,0,0,0,0,0,0,0,0,0,0,0,0,0,0,0,0,0,0,0,0,0,0,0,0,0,0,0,0,0,0,0],"sum_hessian":[9.3800854E2,5.302808E2,4.0772772E2,2.2360846E2,3.066724E2,1.9028287E2,2.1744485E2,2.2056314E2,3.045325E0,1.1167066E2,1.9500172E2,1.1019048E1,1.7926381E2,1.8399393E2,3.6569202E1,1.3658689E0,1.6794561E0,1.0680545E2,4.865206E0,1.5690503E2,3.8096695E1,1.1605756E0,9.858473E0,1.5089058E2,2.8373234E1,2.4249182E1,1.5974475E2,9.36535E0,2.7203852E1,8.512961E1,2.1675848E1,1.3550792E0,3.5101268E0,6.761203E1,8.929301E1,1.4289519E1,2.3807175E1,8.301856E0,1.5566164E0,9.762264E0,1.8610968E1,1.948063E1,4.7685513E0,3.9089184E0,5.4564314E0,3.3440987E1,5.1688618E1,2.9021584E1,6.027142E1,5.1051564E0,9.184363E0,6.681865E0,1.619991E0,8.442151E0,1.3201135E0,4.0091496E0,1.4601819E1],"tree_param":{"num_deleted":"0","num_feature":"9","num_nodes":"57","size_leaf_vector":"1"}},{"base_weights":[2.3727635E-2,-8.1368583E-1,1.0663184E0,-9.177739E-1,-6.287012E-1,1.0010753E0,4.4815797E-2,-1.0450416E0,-8.207755E-1,7.900629E-1,-6.785922E-1,1.0684463E0,9.038836E-1,-1.0824107E0,-6.9075614E-1,-7.2825545E-1,-4.5028057E-2,6.0661834E-2,-3.0678425E-2,-5.1816857E-1,-4.5929827E-2,1.3351224E-2,1.0763013E0,3.7717965E-2,4.6719158E-1,-7.045214E-1,-4.535325E-2,-4.239994E-2,6.6698116E-1,-7.681383E-1,6.8726294E-2,-6.2098914E-1,9.8716754E-1,1.242826E-2,4.3381505E-2,-2.30509E-2,8.335041E-1,-4.275324E-2,3.7697766E-2,7.1101494E-2,-2.7770914E-2,-4.522963E-2,-2.5848227E-2,-4.4902295E-2,-1.904786E-2,6.867364E-2,-3.320888E-2,3.728269E-2,1.0610927E-2],"categories":[],"categories_nodes":[],"categories_segments":[],"categories_sizes":[],"default_left":[0,0,0,0,0,0,0,0,0,0,0,0,0,0,0,0,0,0,0,0,0,0,0,0,0,0,0,0,0,0,0,0,0,0,0,0,0,0,0,0,0,0,0,0,0,0,0,0,0],"id":38,"left_children":[1,3,5,7,9,11,-1,13,15,17,19,21,23,25,27,29,-1,-1,-1,31,-1,-1,33,-1,35,37,-1,-1,39,41,-1,43,45,-1,-1,-1,47,-1,-1,-1,-1,-1,-1,-1,-1,-1,-1,-1,-1],"loss_changes":[8.1995776E2,9.45166E0,3.5430908E-1,3.22995E0,1.40357895E1,3.371277E-1,0E0,1.0999603E0,4.6128845E0,9.014252E0,1.3326744E1,2.8720856E-1,1.0598984E0,1.6199493E0,8.768087E0,1.6011192E1,0E0,0E0,0E0,2.2213009E1,0E0,0E0,3.591156E-1,0E0,3.9983854E0,1.1537588E1,0E0,0E0,7.3592033E0,5.8503723E0,0E0,8.9968605E0,1.3769709E1,0E0,0E0,0E0,1.5718222E-1,0E0,0E0,0E0,0E0,0E0,0E0,0E0,0E0,0E0,0E0,0E0,0E0],"parents":[2147483647,0,0,1,1,2,2,3,3,4,4,5,5,7,7,8,8,9,9,10,10,11,11,12,12,13,13,14,14,15,15,19,19,22,22,24,24,25,25,28,28,29,29,31,31,32,32,36,36],"right_children":[2,4,6,8,10,12,-1,14,16,18,20,22,24,26,28,30,-1,-1,-1,32,-1,-1,34,-1,36,38,-1,-1,40,42,-1,44,46,-1,-1,-1,48,-1,-1,-1,-1,-1,-1,-1,-1,-1,-1,-1,-1],"split_conditions":[1E0,4.08E0,2E0,1.8E1,4.1E0,4.2333335E-1,4.4815797E-2,9E-1,7.7E-1,3.4E-1,7.226E3,1.17E0,9E-1,1E-1,8.47E3,7.6E-1,-4.5028057E-2,6.0661834E-2,